{"learner":{"attributes":{"scikit_learn":"{\"_estimator_type\": \"classifier\"}"},"feature_names":["recency","frequency","monetary","avg_order_value","R_score","F_score","M_score","RFM_total","pred_purchases_4w","pred_purchases_12w","pred_purchases_26w","pred_purchases_52w","n_items","log_recency","log_frequency","log_monetary","log_aov","revenue_per_day","freq_per_day"],"feature_types":["int","int","float","float","int","int","int","int","float","float","float","float","int","float","float","float","float","float","float"],"gradient_booster":{"model":{"cats":{"enc":[],"feature_segments":[],"sorted_idx":[]},"gbtree_model_param":{"num_parallel_tree":"1","num_trees":"300"},"iteration_indptr":[0,1,2,3,4,5,6,7,8,9,10,11,12,13,14,15,16,17,18,19,20,21,22,23,24,25,26,27,28,29,30,31,32,33,34,35,36,37,38,39,40,41,42,43,44,45,46,47,48,49,50,51,52,53,54,55,56,57,58,59,60,61,62,63,64,65,66,67,68,69,70,71,72,73,74,75,76,77,78,79,80,81,82,83,84,85,86,87,88,89,90,91,92,93,94,95,96,97,98,99,100,101,102,103,104,105,106,107,108,109,110,111,112,113,114,115,116,117,118,119,120,121,122,123,124,125,126,127,128,129,130,131,132,133,134,135,136,137,138,139,140,141,142,143,144,145,146,147,148,149,150,151,152,153,154,155,156,157,158,159,160,161,162,163,164,165,166,167,168,169,170,171,172,173,174,175,176,177,178,179,180,181,182,183,184,185,186,187,188,189,190,191,192,193,194,195,196,197,198,199,200,201,202,203,204,205,206,207,208,209,210,211,212,213,214,215,216,217,218,219,220,221,222,223,224,225,226,227,228,229,230,231,232,233,234,235,236,237,238,239,240,241,242,243,244,245,246,247,248,249,250,251,252,253,254,255,256,257,258,259,260,261,262,263,264,265,266,267,268,269,270,271,272,273,274,275,276,277,278,279,280,281,282,283,284,285,286,287,288,289,290,291,292,293,294,295,296,297,298,299,300],"tree_info":[0,0,0,0,0,0,0,0,0,0,0,0,0,0,0,0,0,0,0,0,0,0,0,0,0,0,0,0,0,0,0,0,0,0,0,0,0,0,0,0,0,0,0,0,0,0,0,0,0,0,0,0,0,0,0,0,0,0,0,0,0,0,0,0,0,0,0,0,0,0,0,0,0,0,0,0,0,0,0,0,0,0,0,0,0,0,0,0,0,0,0,0,0,0,0,0,0,0,0,0,0,0,0,0,0,0,0,0,0,0,0,0,0,0,0,0,0,0,0,0,0,0,0,0,0,0,0,0,0,0,0,0,0,0,0,0,0,0,0,0,0,0,0,0,0,0,0,0,0,0,0,0,0,0,0,0,0,0,0,0,0,0,0,0,0,0,0,0,0,0,0,0,0,0,0,0,0,0,0,0,0,0,0,0,0,0,0,0,0,0,0,0,0,0,0,0,0,0,0,0,0,0,0,0,0,0,0,0,0,0,0,0,0,0,0,0,0,0,0,0,0,0,0,0,0,0,0,0,0,0,0,0,0,0,0,0,0,0,0,0,0,0,0,0,0,0,0,0,0,0,0,0,0,0,0,0,0,0,0,0,0,0,0,0,0,0,0,0,0,0,0,0,0,0,0,0,0,0,0,0,0,0,0,0,0,0,0,0,0,0,0,0,0,0,0,0,0,0,0,0],"trees":[{"base_weights":[4.2308167E-2,-1.8794615E0,1.1003685E0,-1.9632275E0,-1.2083486E0,-9.933334E-2,1.5820019E0,-9.979632E-2,-1.6092367E0,9.3041115E-2,-9.824268E-2,1.8778853E0,1.0063642E0,6.044183E-2,-9.7812496E-2,9.831878E-2,8.19927E-2,-9.548387E-2,6.070378E-2],"categories":[],"categories_nodes":[],"categories_segments":[],"categories_sizes":[],"default_left":[0,0,0,0,0,0,0,0,0,0,0,0,0,0,0,0,0,0,0],"id":0,"left_children":[1,3,5,7,9,-1,11,-1,13,-1,-1,15,17,-1,-1,-1,-1,-1,-1],"loss_changes":[3.6695522E3,3.3333008E1,1.7336427E3,3.001709E0,1.7510828E2,0E0,1.6940747E2,0E0,5.4705032E1,0E0,0E0,1.0403564E1,2.1078433E2,0E0,0E0,0E0,0E0,0E0,0E0],"parents":[2147483647,0,0,1,1,2,2,3,3,4,4,6,6,8,8,11,11,12,12],"right_children":[2,4,6,8,10,-1,12,-1,14,-1,-1,16,18,-1,-1,-1,-1,-1,-1],"split_conditions":[2.75E2,1.8E1,2E0,3.103E3,2.8165879E-2,-9.933334E-2,6.698197E-3,-9.979632E-2,3.379409E1,9.3041115E-2,-9.824268E-2,4.7263894E-3,5.235602E-3,6.044183E-2,-9.7812496E-2,9.831878E-2,8.19927E-2,-9.548387E-2,6.070378E-2],"split_indices":[0,1,1,12,8,0,8,0,17,0,0,8,18,0,0,0,0,0,0],"split_type":[0,0,0,0,0,0,0,0,0,0,0,0,0,0,0,0,0,0,0],"sum_hessian":[1.8027057E3,6.397848E2,1.1629209E3,5.669462E2,7.283861E1,1.565E2,1.0064209E3,5.145E2,5.24462E1,1.4088608E1,5.875E1,6.6312976E2,3.4329114E2,5.4462028E0,4.7E1,4.7781647E2,1.853133E2,2.225E1,3.2104114E2],"tree_param":{"num_deleted":"0","num_feature":"19","num_nodes":"19","size_leaf_vector":"1"}},{"base_weights":[1.1276078E-2,-1.816514E0,1.0118881E0,-1.8711214E0,-1.0580772E0,-9.466683E-2,1.5022715E0,-9.505778E-2,-1.6152354E0,8.5862786E-2,-9.2468776E-2,1.8078073E0,9.609139E-1,5.192212E-2,-9.373299E-2,9.380579E-2,8.0132924E-2,6.5342598E-3,7.180544E-2],"categories":[],"categories_nodes":[],"categories_segments":[],"categories_sizes":[],"default_left":[0,0,0,0,0,0,0,0,0,0,0,0,0,0,0,0,0,0,0],"id":1,"left_children":[1,3,5,7,9,-1,11,-1,13,-1,-1,15,17,-1,-1,-1,-1,-1,-1],"loss_changes":[3.241764E3,2.3697266E1,1.6347723E3,1.0620117E0,1.0100319E2,0E0,1.6019092E2,0E0,4.904535E1,0E0,0E0,5.4124756E0,1.4012369E2,0E0,0E0,0E0,0E0,0E0,0E0],"parents":[2147483647,0,0,1,1,2,2,3,3,4,4,6,6,8,8,11,11,12,12],"right_children":[2,4,6,8,10,-1,12,-1,14,-1,-1,16,18,-1,-1,-1,-1,-1,-1],"split_conditions":[2.63E2,2.4E1,2E0,3.103E3,2.5628868E-2,-9.466683E-2,6.2938984E-3,-9.505778E-2,3.379409E1,8.5862786E-2,-9.2468776E-2,4.660385E-3,4E0,5.192212E-2,-9.373299E-2,9.380579E-2,8.0132924E-2,6.5342598E-3,7.180544E-2],"split_indices":[0,1,1,12,8,0,8,0,17,0,0,8,1,0,0,0,0,0,0],"split_type":[0,0,0,0,0,0,0,0,0,0,0,0,0,0,0,0,0,0,0],"sum_hessian":[1.7705516E3,6.260494E2,1.1445022E3,5.825098E2,4.3539597E1,1.6484291E2,9.796593E2,5.152166E2,6.72932E1,9.372108E0,3.416749E1,6.246118E2,3.550475E2,5.691004E0,6.1602192E1,4.6211023E2,1.6250159E2,1.2978366E2,2.2526384E2],"tree_param":{"num_deleted":"0","num_feature":"19","num_nodes":"19","size_leaf_vector":"1"}},{"base_weights":[6.537911E-2,-1.739556E0,1.0192938E0,-1.7912321E0,-9.6346545E-1,-9.058393E-2,1.4570707E0,-9.096444E-2,-1.5577735E0,8.242642E-2,-8.835153E-2,1.7237686E0,9.2368656E-1,4.4207815E-2,-8.979618E-2,7.749201E-2,9.007352E-2,-9.140549E-2,5.5630952E-2],"categories":[],"categories_nodes":[],"categories_segments":[],"categories_sizes":[],"default_left":[0,0,0,0,0,0,0,0,0,0,0,0,0,0,0,0,0,0,0],"id":2,"left_children":[1,3,5,7,9,-1,11,-1,13,-1,-1,15,17,-1,-1,-1,-1,-1,-1],"loss_changes":[3.1503962E3,2.3371704E1,1.4862277E3,7.050781E-1,9.061866E1,0E0,1.4571143E2,0E0,4.287503E1,0E0,0E0,6.2019043E0,1.829278E2,0E0,0E0,0E0,0E0,0E0,0E0],"parents":[2147483647,0,0,1,1,2,2,3,3,4,4,6,6,8,8,11,11,12,12],"right_children":[2,4,6,8,10,-1,12,-1,14,-1,-1,16,18,-1,-1,-1,-1,-1,-1],"split_conditions":[2.63E2,2.4E1,2E0,3.103E3,7.684927E-2,-9.058393E-2,8.679235E-2,-9.096444E-2,3.379409E1,8.242642E-2,-8.835153E-2,4.3956046E-3,5.235602E-3,4.4207815E-2,-8.979618E-2,7.749201E-2,9.007352E-2,-9.140549E-2,5.5630952E-2],"split_indices":[0,1,1,12,9,0,11,0,17,0,0,18,18,0,0,0,0,0,0],"split_type":[0,0,0,0,0,0,0,0,0,0,0,0,0,0,0,0,0,0,0],"sum_hessian":[1.8277719E3,6.316592E2,1.1961127E3,5.908785E2,4.0780697E1,1.5974205E2,1.0363706E3,5.2103973E2,6.983875E1,9.31765E0,3.1463049E1,6.892959E2,3.4707474E2,5.9274735E0,6.391128E1,2.1971555E2,4.6958035E2,2.1707039E1,3.2536768E2],"tree_param":{"num_deleted":"0","num_feature":"19","num_nodes":"19","size_leaf_vector":"1"}},{"base_weights":[3.0784741E-2,-1.6730285E0,9.613579E-1,-1.696208E0,-5.4692996E-1,-8.703127E-2,1.3882958E0,-1.720834E0,-1.1594814E0,-8.2832955E-2,5.9155654E-2,1.635633E0,7.857655E-1,-8.7391905E-2,-7.57127E-2,-8.415192E-2,5.903342E-2,7.140773E-2,8.590143E-2,-3.0592868E-2,6.4721845E-2],"categories":[],"categories_nodes":[],"categories_segments":[],"categories_sizes":[],"default_left":[0,0,0,0,0,0,0,0,0,0,0,0,0,0,0,0,0,0,0,0,0],"id":3,"left_children":[1,3,5,7,9,-1,11,13,15,-1,-1,17,19,-1,-1,-1,-1,-1,-1,-1,-1],"loss_changes":[2.8364504E3,1.5342773E1,1.3371616E3,5.8931885E0,2.9476982E1,0E0,1.4746826E2,3.140869E-1,3.9261005E1,0E0,0E0,9.331421E0,2.0916988E2,0E0,0E0,0E0,0E0,0E0,0E0,0E0,0E0],"parents":[2147483647,0,0,1,1,2,2,3,3,4,4,6,6,7,7,8,8,11,11,12,12],"right_children":[2,4,6,8,10,-1,12,14,16,-1,-1,18,20,-1,-1,-1,-1,-1,-1,-1,-1],"split_conditions":[2.75E2,2.63E2,1.0986123E0,3.3672957E0,1.84089E3,-8.703127E-2,2.1134382E-2,3.103E3,1.19E2,-8.2832955E-2,5.9155654E-2,4.3956046E-3,1.609438E0,-8.7391905E-2,-7.57127E-2,-8.415192E-2,5.903342E-2,7.140773E-2,8.590143E-2,-3.0592868E-2,6.4721845E-2],"split_indices":[0,0,14,14,2,0,9,12,0,0,0,18,14,0,0,0,0,0,0,0,0],"split_type":[0,0,0,0,0,0,0,0,0,0,0,0,0,0,0,0,0,0,0,0,0],"sum_hessian":[1.786999E3,6.3092145E2,1.1560775E3,6.1761346E2,1.3307989E1,1.5729372E2,9.987838E2,5.882318E2,2.9381645E1,8.168535E0,5.1394544E0,7.067742E2,2.9200967E2,5.1320123E2,7.50306E1,2.4274328E1,5.107317E0,2.0645375E2,5.003204E2,7.7812645E1,2.1419704E2],"tree_param":{"num_deleted":"0","num_feature":"19","num_nodes":"21","size_leaf_vector":"1"}},{"base_weights":[-1.7575365E-2,-1.6124647E0,9.038993E-1,-3.782492E-1,-1.6390676E0,-8.389499E-2,1.3239434E0,7.0712805E-2,-7.587759E-2,-8.450158E-2,-1.3806796E0,1.5570328E0,7.029112E-1,4.802763E-2,-8.397026E-2,8.291032E-2,6.505954E-2,-7.380077E-2,5.4798305E-2],"categories":[],"categories_nodes":[],"categories_segments":[],"categories_sizes":[],"default_left":[0,0,0,0,0,0,0,0,0,0,0,0,0,0,0,0,0,0,0],"id":4,"left_children":[1,3,5,7,9,-1,11,-1,-1,-1,13,15,17,-1,-1,-1,-1,-1,-1],"loss_changes":[2.5238113E3,1.9826782E1,1.1824904E3,3.207177E1,5.4610596E0,0E0,1.3426807E2,0E0,0E0,0E0,7.6618256E1,1.5150635E1,2.221608E2,0E0,0E0,0E0,0E0,0E0,0E0],"parents":[2147483647,0,0,1,1,2,2,3,3,4,4,6,6,10,10,11,11,12,12],"right_children":[2,4,6,8,10,-1,12,-1,-1,-1,14,16,18,-1,-1,-1,-1,-1,-1],"split_conditions":[2.81E2,1.0548731E-1,2E0,1.1992E2,2.921E3,-8.389499E-2,2.1809958E-2,7.0712805E-2,-7.587759E-2,-8.450158E-2,3.691814E1,1.5575021E-2,7.614213E-3,4.802763E-2,-8.397026E-2,8.291032E-2,6.505954E-2,-7.380077E-2,5.4798305E-2],"split_indices":[0,11,1,3,12,0,9,0,0,0,17,9,18,0,0,0,0,0,0],"split_type":[0,0,0,0,0,0,0,0,0,0,0,0,0,0,0,0,0,0,0],"sum_hessian":[1.7152471E3,6.2787646E2,1.0873706E3,1.364849E1,6.1422797E2,1.5170201E2,9.356686E2,5.175921E0,8.4725685E0,5.0808655E2,1.0614141E2,6.79112E2,2.5655655E2,1.1721905E1,9.441951E1,4.824522E2,1.9665982E2,3.8747494E1,2.1780905E2],"tree_param":{"num_deleted":"0","num_feature":"19","num_nodes":"19","size_leaf_vector":"1"}},{"base_weights":[-1.915487E-2,-1.5796291E0,8.3306557E-1,-8.1463836E-2,-1.3345343E0,-8.118816E-2,1.2404865E0,5.1836193E-2,-8.120448E-2,1.5245397E0,6.964937E-1,8.097107E-2,6.645168E-2,-3.075372E-2,6.1285462E-2],"categories":[],"categories_nodes":[],"categories_segments":[],"categories_sizes":[],"default_left":[0,0,0,0,0,0,0,0,0,0,0,0,0,0,0],"id":5,"left_children":[1,3,5,-1,7,-1,9,-1,-1,11,13,-1,-1,-1,-1],"loss_changes":[2.2542456E3,4.8150635E0,1.0993135E3,0E0,7.502112E1,0E0,1.441134E2,0E0,0E0,9.001831E0,2.2622021E2,0E0,0E0,0E0,0E0],"parents":[2147483647,0,0,1,1,2,2,4,4,6,6,9,9,10,10],"right_children":[2,4,6,-1,8,-1,10,-1,-1,12,14,-1,-1,-1,-1],"split_conditions":[5.575949E0,2.921E3,1.0986123E0,-8.1463836E-2,3.691814E1,-8.118816E-2,8.679235E-2,5.1836193E-2,-8.120448E-2,1.39719555E-2,1.609438E0,8.097107E-2,6.645168E-2,-3.075372E-2,6.1285462E-2],"split_indices":[13,12,14,0,17,0,11,0,0,9,14,0,0,0,0],"split_type":[0,0,0,0,0,0,0,0,0,0,0,0,0,0,0],"sum_hessian":[1.6930441E3,5.977629E2,1.0952812E3,4.9203766E2,1.0572525E2,1.553371E2,9.399441E2,1.1186855E1,9.453839E1,6.162005E2,3.2374362E2,4.096145E2,2.0658598E2,9.297361E1,2.3077E2],"tree_param":{"num_deleted":"0","num_feature":"19","num_nodes":"15","size_leaf_vector":"1"}},{"base_weights":[3.3054013E-2,-1.5311941E0,8.537225E-1,-7.89901E-2,-1.2959139E0,-7.872121E-2,1.2397348E0,-7.8794934E-2,3.430435E-1,1.4587688E0,7.0149785E-1,7.05566E-2,-6.994224E-2,5.643679E-2,7.633943E-2,-8.9068085E-2,4.8024174E-2],"categories":[],"categories_nodes":[],"categories_segments":[],"categories_sizes":[],"default_left":[0,0,0,0,0,0,0,0,0,0,0,0,0,0,0,0,0],"id":6,"left_children":[1,3,5,-1,7,-1,9,-1,11,13,15,-1,-1,-1,-1,-1,-1],"loss_changes":[2.1916328E3,4.383789E0,1.051515E3,0E0,4.9536224E1,0E0,1.1273999E2,0E0,3.2316994E1,1.341333E1,1.8276852E2,0E0,0E0,0E0,0E0,0E0,0E0],"parents":[2147483647,0,0,1,1,2,2,4,4,6,6,8,8,9,9,10,10],"right_children":[2,4,6,-1,8,-1,10,-1,12,14,16,-1,-1,-1,-1,-1,-1],"split_conditions":[5.575949E0,2.921E3,2E0,-7.89901E-2,4.7361984E0,-7.872121E-2,7.277313E-3,-7.8794934E-2,3.234275E2,6E0,3E0,7.05566E-2,-6.994224E-2,5.643679E-2,7.633943E-2,-8.9068085E-2,4.8024174E-2],"split_indices":[13,12,1,0,13,0,8,0,3,7,1,0,0,0,0,0,0],"split_type":[0,0,0,0,0,0,0,0,0,0,0,0,0,0,0,0,0],"sum_hessian":[1.7052738E3,5.8645825E2,1.1188156E3,4.8095538E2,1.0550283E2,1.5300774E2,9.6580786E2,9.019433E1,1.5308498E1,6.8510864E2,2.8069922E2,9.642944E0,5.6655536E0,1.2033009E2,5.6477856E2,2.5922213E1,2.5477701E2],"tree_param":{"num_deleted":"0","num_feature":"19","num_nodes":"17","size_leaf_vector":"1"}},{"base_weights":[-4.098964E-2,-1.4706761E0,8.0038136E-1,-7.709104E-2,-1.1328336E0,-7.646268E-2,1.1898745E0,-7.654094E-2,6.019884E-1,1.4452094E0,6.321259E-1,6.386898E-2,-4.720024E-3,5.6810416E-2,7.4942656E-2,-6.640105E-2,4.6468377E-2],"categories":[],"categories_nodes":[],"categories_segments":[],"categories_sizes":[],"default_left":[0,0,0,0,0,0,0,0,0,0,0,0,0,0,0,0,0],"id":7,"left_children":[1,3,5,-1,7,-1,9,-1,11,13,15,-1,-1,-1,-1,-1,-1],"loss_changes":[1.955484E3,1.2461914E1,9.3033746E2,0E0,7.6121185E1,0E0,1.23824585E2,0E0,1.0101694E1,7.994629E0,1.6282803E2,0E0,0E0,0E0,0E0,0E0,0E0],"parents":[2147483647,0,0,1,1,2,2,4,4,6,6,8,8,9,9,10,10],"right_children":[2,4,6,-1,8,-1,10,-1,12,14,16,-1,-1,-1,-1,-1,-1],"split_conditions":[5.641907E0,2.921E3,2E0,-7.709104E-2,4.7361984E0,-7.646268E-2,8.679235E-2,-7.654094E-2,3.234275E2,6E0,3E0,6.386898E-2,-4.720024E-3,5.6810416E-2,7.4942656E-2,-6.640105E-2,4.6468377E-2],"split_indices":[13,12,1,0,13,0,11,0,3,7,1,0,0,0,0,0,0],"split_type":[0,0,0,0,0,0,0,0,0,0,0,0,0,0,0,0,0],"sum_hessian":[1.6236116E3,6.0127515E2,1.0223364E3,4.9349307E2,1.07782074E2,1.459855E2,8.763509E2,8.781231E1,1.996976E1,5.999336E2,2.7641733E2,9.787086E0,1.0182675E1,9.2301125E1,5.0763248E2,3.5896324E1,2.4052098E2],"tree_param":{"num_deleted":"0","num_feature":"19","num_nodes":"17","size_leaf_vector":"1"}},{"base_weights":[-3.3352226E-2,-1.450976E0,7.584353E-1,-7.3627405E-2,-9.669029E-1,-7.44976E-2,1.1381508E0,4.5575675E-2,-7.1807235E-2,1.3795037E0,6.066695E-1,5.9933305E-2,7.472586E-2,-2.1414699E-2,5.2780833E-2],"categories":[],"categories_nodes":[],"categories_segments":[],"categories_sizes":[],"default_left":[0,0,0,0,0,0,0,0,0,0,0,0,0,0,0],"id":8,"left_children":[1,3,5,-1,7,-1,9,-1,-1,11,13,-1,-1,-1,-1],"loss_changes":[1.7895261E3,4.298828E0,8.749496E2,0E0,2.558835E1,0E0,1.11295044E2,0E0,0E0,1.0445801E1,1.2847458E2,0E0,0E0,0E0,0E0],"parents":[2147483647,0,0,1,1,2,2,4,4,6,6,9,9,10,10],"right_children":[2,4,6,-1,8,-1,10,-1,-1,12,14,-1,-1,-1,-1],"split_conditions":[2.67E2,2.8E1,2E0,-7.3627405E-2,9.260965E-2,-7.44976E-2,7.1573094E-3,4.5575675E-2,-7.1807235E-2,3E0,4E0,5.9933305E-2,7.472586E-2,-2.1414699E-2,5.2780833E-2],"split_indices":[0,1,1,0,8,0,8,0,0,1,1,0,0,0,0],"split_type":[0,0,0,0,0,0,0,0,0,0,0,0,0,0,0],"sum_hessian":[1.5922518E3,5.703628E2,1.02188904E3,5.43877E2,2.6485771E1,1.4718481E2,8.747042E2,5.0629E0,2.142287E1,6.003111E2,2.7439316E2,2.3815202E2,3.6215906E2,8.2962326E1,1.9143083E2],"tree_param":{"num_deleted":"0","num_feature":"19","num_nodes":"15","size_leaf_vector":"1"}},{"base_weights":[-3.6523387E-2,-1.3630078E0,7.3391265E-1,-1.4387931E0,-7.5480956E-1,-7.2674304E-2,1.0949132E0,-7.33211E-2,-1.1355093E0,8.686568E-2,-7.20728E-2,1.3523159E0,5.836355E-1,4.0667422E-2,-7.1798615E-2,7.211607E-2,5.7920426E-2,-8.335499E-2,3.8249355E-2],"categories":[],"categories_nodes":[],"categories_segments":[],"categories_sizes":[],"default_left":[0,0,0,0,0,0,0,0,0,0,0,0,0,0,0,0,0,0,0],"id":9,"left_children":[1,3,5,7,9,-1,11,-1,13,-1,-1,15,17,-1,-1,-1,-1,-1,-1],"loss_changes":[1.5880378E3,2.5010498E1,7.7771985E2,2.3182373E0,1.1457522E2,0E0,1.10129395E2,0E0,2.8761353E1,0E0,0E0,7.85437E0,1.17356E2,0E0,0E0,0E0,0E0,0E0,0E0],"parents":[2147483647,0,0,1,1,2,2,3,3,4,4,6,6,8,8,11,11,12,12],"right_children":[2,4,6,8,10,-1,12,-1,14,-1,-1,16,18,-1,-1,-1,-1,-1,-1],"split_conditions":[2.81E2,2.944439E0,1.0986123E0,3.103E3,2.8165879E-2,-7.2674304E-2,8.679235E-2,-7.33211E-2,3.379409E1,8.686568E-2,-7.20728E-2,4.7263894E-3,5.235602E-3,4.0667422E-2,-7.1798615E-2,7.211607E-2,5.7920426E-2,-8.335499E-2,3.8249355E-2],"split_indices":[0,14,14,12,8,0,11,0,17,0,0,8,18,0,0,0,0,0,0],"split_type":[0,0,0,0,0,0,0,0,0,0,0,0,0,0,0,0,0,0,0],"sum_hessian":[1.5518563E3,5.6993744E2,9.819189E2,5.0542783E2,6.450962E1,1.3862852E2,8.4329034E2,4.59411E2,4.6016815E1,1.3572747E1,5.093687E1,5.596793E2,2.83611E2,5.874425E0,4.014239E1,3.7750168E2,1.8217769E2,2.0495796E1,2.631152E2],"tree_param":{"num_deleted":"0","num_feature":"19","num_nodes":"19","size_leaf_vector":"1"}},{"base_weights":[5.0681215E-3,-1.3566946E0,7.488908E-1,-1.4078779E0,-6.3034743E-1,-7.103849E-2,1.0888956E0,-7.1740806E-2,-1.1790572E0,8.222862E-2,-6.952721E-2,1.3250257E0,6.397471E-1,4.4489812E-2,-7.065974E-2,5.43769E-2,7.063841E-2,-8.122004E-2,4.107152E-2],"categories":[],"categories_nodes":[],"categories_segments":[],"categories_sizes":[],"default_left":[0,0,0,0,0,0,0,0,0,0,0,0,0,0,0,0,0,0,0],"id":10,"left_children":[1,3,5,7,9,-1,11,-1,13,-1,-1,15,17,-1,-1,-1,-1,-1,-1],"loss_changes":[1.5559623E3,1.9082031E1,7.3445575E2,1.1657104E0,6.738957E1,0E0,9.011835E1,0E0,3.0031189E1,0E0,0E0,9.930481E0,1.2394634E2,0E0,0E0,0E0,0E0,0E0,0E0],"parents":[2147483647,0,0,1,1,2,2,3,3,4,4,6,6,8,8,11,11,12,12],"right_children":[2,4,6,8,10,-1,12,-1,14,-1,-1,16,18,-1,-1,-1,-1,-1,-1],"split_conditions":[2.81E2,2.4E1,2E0,3.103E3,2.5628868E-2,-7.103849E-2,6.698197E-3,-7.1740806E-2,3.379409E1,8.222862E-2,-6.952721E-2,4.3956046E-3,5.235602E-3,4.4489812E-2,-7.065974E-2,5.43769E-2,7.063841E-2,-8.122004E-2,4.107152E-2],"split_indices":[0,1,1,12,8,0,8,0,17,0,0,18,18,0,0,0,0,0,0],"split_type":[0,0,0,0,0,0,0,0,0,0,0,0,0,0,0,0,0,0,0],"sum_hessian":[1.5341879E3,5.416312E2,9.9255664E2,5.049716E2,3.6659668E1,1.3399922E2,8.585574E2,4.4667838E2,5.8293194E1,8.85771E0,2.7801958E1,5.6129565E2,2.9726175E2,5.598357E0,5.269484E1,1.5535086E2,4.059448E2,2.1450693E1,2.7581107E2],"tree_param":{"num_deleted":"0","num_feature":"19","num_nodes":"19","size_leaf_vector":"1"}},{"base_weights":[1.2658493E-2,-1.3008426E0,7.3313755E-1,-1.3762075E0,-6.876957E-1,-6.9533035E-2,1.0481045E0,-7.0194624E-2,-1.0793072E0,8.253276E-2,-6.9075845E-2,1.2682203E0,5.397525E-1,4.2826142E-2,-6.86905E-2,5.345726E-2,6.917509E-2,-5.789851E-2,3.886905E-2],"categories":[],"categories_nodes":[],"categories_segments":[],"categories_sizes":[],"default_left":[0,0,0,0,0,0,0,0,0,0,0,0,0,0,0,0,0,0,0],"id":11,"left_children":[1,3,5,7,9,-1,11,-1,13,-1,-1,15,17,-1,-1,-1,-1,-1,-1],"loss_changes":[1.4370596E3,2.3702087E1,6.574461E2,2.1641846E0,1.0125156E2,0E0,9.476831E1,0E0,2.7106117E1,0E0,0E0,1.1942932E1,1.05803764E2,0E0,0E0,0E0,0E0,0E0,0E0],"parents":[2147483647,0,0,1,1,2,2,3,3,4,4,6,6,8,8,11,11,12,12],"right_children":[2,4,6,8,10,-1,12,-1,14,-1,-1,16,18,-1,-1,-1,-1,-1,-1],"split_conditions":[2.81E2,1.8E1,2E0,3.103E3,8.446302E-2,-6.9533035E-2,2.1134382E-2,-7.0194624E-2,3.379409E1,8.253276E-2,-6.9075845E-2,4.6189376E-3,3E0,4.2826142E-2,-6.86905E-2,5.345726E-2,6.917509E-2,-5.789851E-2,3.886905E-2],"split_indices":[0,1,1,12,9,0,9,0,17,0,0,18,1,0,0,0,0,0,0],"split_type":[0,0,0,0,0,0,0,0,0,0,0,0,0,0,0,0,0,0,0],"sum_hessian":[1.5165807E3,5.3687067E2,9.797101E2,4.7685104E2,6.001962E1,1.2604767E2,8.536624E2,4.3246014E2,4.43909E1,1.3385139E1,4.663448E1,5.945372E2,2.5912524E2,5.564742E0,3.882616E1,2.221156E2,3.7242154E2,3.1289007E1,2.2783624E2],"tree_param":{"num_deleted":"0","num_feature":"19","num_nodes":"19","size_leaf_vector":"1"}},{"base_weights":[3.990191E-3,-1.3161232E0,6.898198E-1,-6.8677805E-2,-1.0736992E0,-6.8232566E-2,1.0100504E0,5.9561647E-2,-6.819608E-2,1.1506693E0,6.4903975E-4,4.7339737E-2,6.984954E-2,-9.317563E-2,4.1688737E-2],"categories":[],"categories_nodes":[],"categories_segments":[],"categories_sizes":[],"default_left":[0,0,0,0,0,0,0,0,0,0,0,0,0,0,0],"id":12,"left_children":[1,3,5,-1,7,-1,9,-1,-1,11,13,-1,-1,-1,-1],"loss_changes":[1.336949E3,5.3096313E0,6.407593E2,0E0,6.843411E1,0E0,1.1932086E2,0E0,0E0,3.5528442E1,1.6293462E2,0E0,0E0,0E0,0E0],"parents":[2147483647,0,0,1,1,2,2,4,4,6,6,9,9,10,10],"right_children":[2,4,6,-1,8,-1,10,-1,-1,12,14,-1,-1,-1,-1],"split_conditions":[2.63E2,1.2E1,2E0,-6.8677805E-2,1.3894376E-1,-6.8232566E-2,3.239585E-2,5.9561647E-2,-6.819608E-2,4E0,5E0,4.7339737E-2,6.984954E-2,-9.317563E-2,4.1688737E-2],"split_indices":[0,1,1,0,9,0,9,0,0,1,1,0,0,0,0],"split_type":[0,0,0,0,0,0,0,0,0,0,0,0,0,0,0],"sum_hessian":[1.4747496E3,5.0385114E2,9.708985E2,4.0324054E2,1.00610596E2,1.3044456E2,8.404539E2,1.1035901E1,8.957469E1,7.374775E2,1.0297645E2,4.0637778E2,3.3109967E2,3.138781E1,7.158864E1],"tree_param":{"num_deleted":"0","num_feature":"19","num_nodes":"15","size_leaf_vector":"1"}},{"base_weights":[-1.6569205E-2,-1.270434E0,6.505806E-1,-1.3199987E0,-6.0450536E-1,-6.697795E-2,9.6237135E-1,-6.728906E-2,-1.0991862E0,7.482006E-2,-6.55153E-2,1.2543277E0,5.172921E-1,3.774243E-2,-6.7269646E-2,6.649011E-2,5.1717963E-2,-1.7318984E-2,4.8237514E-2],"categories":[],"categories_nodes":[],"categories_segments":[],"categories_sizes":[],"default_left":[0,0,0,0,0,0,0,0,0,0,0,0,0,0,0,0,0,0,0],"id":13,"left_children":[1,3,5,7,9,-1,11,-1,13,-1,-1,15,17,-1,-1,-1,-1,-1,-1],"loss_changes":[1.1888179E3,1.5300781E1,5.7678253E2,8.859863E-1,5.558514E1,0E0,1.0345538E2,0E0,2.5628593E1,0E0,0E0,6.419861E0,1.23958176E2,0E0,0E0,0E0,0E0,0E0,0E0],"parents":[2147483647,0,0,1,1,2,2,3,3,4,4,6,6,8,8,11,11,12,12],"right_children":[2,4,6,8,10,-1,12,-1,14,-1,-1,16,18,-1,-1,-1,-1,-1,-1],"split_conditions":[5.575949E0,2.4E1,2E0,3.103E3,2.5628868E-2,-6.697795E-2,6.2938984E-3,-6.728906E-2,3.225E3,7.482006E-2,-6.55153E-2,4.7263894E-3,4E0,3.774243E-2,-6.7269646E-2,6.649011E-2,5.1717963E-2,-1.7318984E-2,4.8237514E-2],"split_indices":[13,1,1,12,8,0,8,0,12,0,0,8,1,0,0,0,0,0,0],"split_type":[0,0,0,0,0,0,0,0,0,0,0,0,0,0,0,0,0,0,0],"sum_hessian":[1.4190923E3,4.9257504E2,9.265173E2,4.573987E2,3.5176315E1,1.2500456E2,8.0151276E2,4.046084E2,5.2790314E1,8.528452E0,2.6647861E1,4.8278192E2,3.187308E2,5.8986964E0,4.6891617E1,3.5535452E2,1.27427414E2,1.0877623E2,2.0995459E2],"tree_param":{"num_deleted":"0","num_feature":"19","num_nodes":"19","size_leaf_vector":"1"}},{"base_weights":[-2.508507E-4,-1.2682403E0,6.4444596E-1,-1.2968841E0,-8.059853E-1,-6.583034E-2,9.376577E-1,-6.615209E-2,-1.0892476E0,6.4326674E-2,-6.3986026E-2,1.2131641E0,4.3231106E-1,3.9427873E-2,-6.5481365E-2,-3.7702804E-3,6.1339922E-2,-5.0555456E-2,3.506844E-2],"categories":[],"categories_nodes":[],"categories_segments":[],"categories_sizes":[],"default_left":[0,0,0,0,0,0,0,0,0,0,0,0,0,0,0,0,0,0,0],"id":14,"left_children":[1,3,5,7,9,-1,11,-1,13,-1,-1,15,17,-1,-1,-1,-1,-1,-1],"loss_changes":[1.1509159E3,5.0281982E0,5.3781714E2,7.348633E-1,3.1917103E1,0E0,1.124306E2,0E0,2.4209427E1,0E0,0E0,9.433655E0,1.12662704E2,0E0,0E0,0E0,0E0,0E0,0E0],"parents":[2147483647,0,0,1,1,2,2,3,3,4,4,6,6,8,8,11,11,12,12],"right_children":[2,4,6,8,10,-1,12,-1,14,-1,-1,16,18,-1,-1,-1,-1,-1,-1],"split_conditions":[2.63E2,2.4E1,2E0,3.103E3,4.52375E1,-6.583034E-2,8.679235E-2,-6.615209E-2,3.379409E1,6.4326674E-2,-6.3986026E-2,8.2E1,3E0,3.9427873E-2,-6.5481365E-2,-3.7702804E-3,6.1339922E-2,-5.0555456E-2,3.506844E-2],"split_indices":[0,1,1,12,17,0,11,0,17,0,0,12,1,0,0,0,0,0,0],"split_type":[0,0,0,0,0,0,0,0,0,0,0,0,0,0,0,0,0,0,0],"sum_hessian":[1.4058259E3,4.7357898E2,9.32247E2,4.440419E2,2.9537062E1,1.2075883E2,8.1148816E2,3.8916245E2,5.487946E1,5.096903E0,2.4440159E1,5.241383E2,2.8734985E2,5.445727E0,4.943373E1,5.3636093E0,5.187747E2,4.4655556E1,2.4269429E2],"tree_param":{"num_deleted":"0","num_feature":"19","num_nodes":"19","size_leaf_vector":"1"}},{"base_weights":[1.868587E-2,-1.170668E0,6.782954E-1,1.01269186E-1,-1.2184446E0,-6.471574E-2,9.571564E-1,-6.0130823E-2,7.563009E-2,-1.2942934E0,-6.407706E-1,1.1627846E0,4.9761802E-1,-6.633176E-2,-5.0125338E-2,7.442433E-2,-6.423778E-2,4.6675622E-2,6.495479E-2,-8.468532E-2,3.941889E-2],"categories":[],"categories_nodes":[],"categories_segments":[],"categories_sizes":[],"default_left":[0,0,0,0,0,0,0,0,0,0,0,0,0,0,0,0,0,0,0,0,0],"id":15,"left_children":[1,3,5,7,9,-1,11,-1,-1,13,15,17,19,-1,-1,-1,-1,-1,-1,-1,-1],"loss_changes":[1.0820735E3,3.0135376E1,4.8930435E2,3.6188858E1,1.9762146E1,0E0,7.2775085E1,0E0,0E0,2.383545E0,8.031137E1,1.5334534E1,1.5570163E2,0E0,0E0,0E0,0E0,0E0,0E0,0E0,0E0],"parents":[2147483647,0,0,1,1,2,2,3,3,4,4,6,6,9,9,10,10,11,11,12,12],"right_children":[2,4,6,8,10,-1,12,-1,-1,14,16,18,20,-1,-1,-1,-1,-1,-1,-1,-1],"split_conditions":[2.96E2,1.0548731E-1,2E0,3E0,1.8E1,-6.471574E-2,4.6414595E-2,-6.0130823E-2,7.563009E-2,1.2E1,2.8165879E-2,4.784689E-3,6.8965517E-3,-6.633176E-2,-5.0125338E-2,7.442433E-2,-6.423778E-2,4.6675622E-2,6.495479E-2,-8.468532E-2,3.941889E-2],"split_indices":[0,11,1,1,1,0,10,0,0,1,8,18,18,0,0,0,0,0,0,0,0],"split_type":[0,0,0,0,0,0,0,0,0,0,0,0,0,0,0,0,0,0,0,0,0],"sum_hessian":[1.3773506E3,4.9103326E2,8.863173E2,1.7660187E1,4.7337308E2,1.09281395E2,7.7703595E2,9.219559E0,8.440628E0,4.1718314E2,5.6189945E1,5.356172E2,2.4141876E2,3.7205508E2,4.5128048E1,1.2707501E1,4.348244E1,2.029099E2,3.327073E2,2.7675098E1,2.1374367E2],"tree_param":{"num_deleted":"0","num_feature":"19","num_nodes":"21","size_leaf_vector":"1"}},{"base_weights":[-2.6585074E-2,-1.2139192E0,6.0848415E-1,-1.2626342E0,-5.2531976E-1,-6.377606E-2,8.9628893E-1,-6.454962E-2,-1.0268048E0,6.885409E-2,-6.1798662E-2,1.1663458E0,3.816433E-1,3.725735E-2,-6.413792E-2,6.356379E-2,4.5055438E-2,-1.8172808E-2,5.4499906E-2],"categories":[],"categories_nodes":[],"categories_segments":[],"categories_sizes":[],"default_left":[0,0,0,0,0,0,0,0,0,0,0,0,0,0,0,0,0,0,0],"id":16,"left_children":[1,3,5,7,9,-1,11,-1,13,-1,-1,15,17,-1,-1,-1,-1,-1,-1],"loss_changes":[9.787582E2,1.4332153E1,4.5961594E2,1.2622681E0,4.4592587E1,0E0,1.0143939E2,0E0,2.3923172E1,0E0,0E0,1.2021301E1,1.3467871E2,0E0,0E0,0E0,0E0,0E0,0E0],"parents":[2147483647,0,0,1,1,2,2,3,3,4,4,6,6,8,8,11,11,12,12],"right_children":[2,4,6,8,10,-1,12,-1,14,-1,-1,16,18,-1,-1,-1,-1,-1,-1],"split_conditions":[2.81E2,2.4E1,2E0,3.103E3,2.5628868E-2,-6.377606E-2,8.679235E-2,-6.454962E-2,3.225E3,6.885409E-2,-6.1798662E-2,4.7263894E-3,5E0,3.725735E-2,-6.413792E-2,6.356379E-2,4.5055438E-2,-1.8172808E-2,5.4499906E-2],"split_indices":[0,1,1,12,8,0,11,0,12,0,0,8,1,0,0,0,0,0,0],"split_type":[0,0,0,0,0,0,0,0,0,0,0,0,0,0,0,0,0,0,0],"sum_hessian":[1.2959602E3,4.513521E2,8.446081E2,4.206167E2,3.0735424E1,1.1142529E2,7.331828E2,3.710948E2,4.9521904E1,8.065581E0,2.2669842E1,4.798986E2,2.5328424E2,5.9599E0,4.3562004E1,3.4087555E2,1.3902303E2,1.23608986E2,1.2967525E2],"tree_param":{"num_deleted":"0","num_feature":"19","num_nodes":"19","size_leaf_vector":"1"}},{"base_weights":[1.6397351E-2,-1.2487801E0,6.237251E-1,-6.3441694E-2,-7.9310507E-1,-6.288414E-2,8.9265823E-1,1.6663816E-2,-5.973307E-2,1.2029394E0,5.652949E-1,6.250093E-2,4.99265E-2,6.8527847E-3,4.4566642E-2],"categories":[],"categories_nodes":[],"categories_segments":[],"categories_sizes":[],"default_left":[0,0,0,0,0,0,0,0,0,0,0,0,0,0,0],"id":17,"left_children":[1,3,5,-1,7,-1,9,-1,-1,11,13,-1,-1,-1,-1],"loss_changes":[9.864556E2,2.5922852E0,4.4002487E2,0E0,9.724395E0,0E0,7.630432E1,0E0,0E0,2.2701416E0,5.1671585E1,0E0,0E0,0E0,0E0],"parents":[2147483647,0,0,1,1,2,2,4,4,6,6,9,9,10,10],"right_children":[2,4,6,-1,8,-1,10,-1,-1,12,14,-1,-1,-1,-1],"split_conditions":[5.575949E0,2.8E1,2E0,-6.3441694E-2,2.9E1,-6.288414E-2,7.479087E-2,1.6663816E-2,-5.973307E-2,1.4169708E-2,4E0,6.250093E-2,4.99265E-2,6.8527847E-3,4.4566642E-2],"split_indices":[13,1,1,0,1,0,11,0,0,9,1,0,0,0,0],"split_type":[0,0,0,0,0,0,0,0,0,0,0,0,0,0,0],"sum_hessian":[1.2818842E3,4.153699E2,8.665142E2,3.95941E2,1.9428898E1,1.07864586E2,7.5864966E2,5.0853357E0,1.4343562E1,3.8795676E2,3.706929E2,3.1077505E2,7.718169E1,1.6097931E2,2.097136E2],"tree_param":{"num_deleted":"0","num_feature":"19","num_nodes":"15","size_leaf_vector":"1"}},{"base_weights":[-5.535818E-3,-1.1669314E0,6.10787E-1,-1.2354082E0,-3.7079418E-1,-6.2022727E-2,8.7440926E-1,-6.3456215E-2,-1.0142057E0,6.750387E-2,-6.063993E-2,1.0894397E0,3.8303933E-1,3.186689E-2,-6.166002E-2,4.357896E-2,6.2872544E-2,-6.758682E-2,3.0977696E-2],"categories":[],"categories_nodes":[],"categories_segments":[],"categories_sizes":[],"default_left":[0,0,0,0,0,0,0,0,0,0,0,0,0,0,0,0,0,0,0],"id":18,"left_children":[1,3,5,7,9,-1,11,-1,13,-1,-1,15,17,-1,-1,-1,-1,-1,-1],"loss_changes":[9.0073834E2,2.3166931E1,4.0220956E2,1.4766846E0,5.3930424E1,0E0,7.5528564E1,0E0,2.1979961E1,0E0,0E0,1.700238E1,9.140228E1,0E0,0E0,0E0,0E0,0E0,0E0],"parents":[2147483647,0,0,1,1,2,2,3,3,4,4,6,6,8,8,11,11,12,12],"right_children":[2,4,6,8,10,-1,12,-1,14,-1,-1,16,18,-1,-1,-1,-1,-1,-1],"split_conditions":[2.83E2,2.4E1,2E0,1.2E1,2.5628868E-2,-6.2022727E-2,7.277313E-3,-6.3456215E-2,4.6344746E-2,6.750387E-2,-6.063993E-2,3E0,6.3383E2,3.186689E-2,-6.166002E-2,4.357896E-2,6.2872544E-2,-6.758682E-2,3.0977696E-2],"split_indices":[0,1,1,1,8,0,8,0,8,0,0,1,2,0,0,0,0,0,0],"split_type":[0,0,0,0,0,0,0,0,0,0,0,0,0,0,0,0,0,0,0],"sum_hessian":[1.2563021E3,4.3529785E2,8.210042E2,4.0019885E2,3.5099E1,1.0183074E2,7.1917346E2,3.427647E2,5.7434147E1,1.1294125E1,2.3804874E1,4.9926663E2,2.1990685E2,6.4470363E0,5.098711E1,2.2033733E2,2.789293E2,2.5767874E1,1.9413898E2],"tree_param":{"num_deleted":"0","num_feature":"19","num_nodes":"19","size_leaf_vector":"1"}},{"base_weights":[-1.6138172E-2,-1.1503932E0,5.7395834E-1,-6.2453803E-2,-7.23379E-1,-6.1247267E-2,8.3400303E-1,-6.1315726E-2,7.3064977E-1,1.1513674E0,4.7601613E-1,5.5980165E-2,-4.606554E-3,4.6944123E-2,6.1178546E-2,-1.3798481E-1,2.8580839E-2],"categories":[],"categories_nodes":[],"categories_segments":[],"categories_sizes":[],"default_left":[0,0,0,0,0,0,0,0,0,0,0,0,0,0,0,0,0],"id":19,"left_children":[1,3,5,-1,7,-1,9,-1,11,13,15,-1,-1,-1,-1,-1,-1],"loss_changes":[8.004704E2,1.6146301E1,3.6894116E2,0E0,5.9007835E1,0E0,7.7440735E1,0E0,6.920189E0,4.2160645E0,1.0192526E2,0E0,0E0,0E0,0E0,0E0,0E0],"parents":[2147483647,0,0,1,1,2,2,4,4,6,6,8,8,9,9,10,10],"right_children":[2,4,6,-1,8,-1,10,-1,12,14,16,-1,-1,-1,-1,-1,-1],"split_conditions":[2.83E2,2.921E3,2E0,-6.2453803E-2,1.13E2,-6.1247267E-2,7.479087E-2,-6.1315726E-2,6.328194E0,3.7593986E-3,4.3956046E-3,5.5980165E-2,-4.606554E-3,4.6944123E-2,6.1178546E-2,-1.3798481E-1,2.8580839E-2],"split_indices":[0,12,1,0,0,0,11,0,16,18,18,0,0,0,0,0,0],"split_type":[0,0,0,0,0,0,0,0,0,0,0,0,0,0,0,0,0],"sum_hessian":[1.1938732E3,4.0829263E2,7.855805E2,3.298948E2,7.839783E1,9.870142E1,6.868791E2,5.8417213E1,1.998061E1,3.6277463E2,3.2410446E2,1.340462E1,6.575989E0,9.591074E1,2.6686386E2,8.471284E0,3.1563318E2],"tree_param":{"num_deleted":"0","num_feature":"19","num_nodes":"17","size_leaf_vector":"1"}},{"base_weights":[-1.7070772E-2,-1.1680324E0,5.4464394E-1,-6.1142214E-2,-4.5325187E-1,-6.056136E-2,8.047931E-1,6.765624E-2,-5.8848083E-2,9.717616E-1,3.2799903E-2,2.7674198E-2,5.991741E-2,-1.1577038E-1,2.6815671E-2],"categories":[],"categories_nodes":[],"categories_segments":[],"categories_sizes":[],"default_left":[0,0,0,0,0,0,0,0,0,0,0,0,0,0,0],"id":20,"left_children":[1,3,5,-1,7,-1,9,-1,-1,11,13,-1,-1,-1,-1],"loss_changes":[7.513289E2,1.4211792E1,3.5762912E2,0E0,3.931203E1,0E0,8.761685E1,0E0,0E0,5.2194946E1,1.4554291E2,0E0,0E0,0E0,0E0],"parents":[2147483647,0,0,1,1,2,2,4,4,6,6,9,9,10,10],"right_children":[2,4,6,-1,8,-1,10,-1,-1,12,14,-1,-1,-1,-1],"split_conditions":[2.67E2,2.4E1,2E0,-6.1142214E-2,2.5628868E-2,-6.056136E-2,6.6332415E-2,6.765624E-2,-5.8848083E-2,3E0,1.010101E-2,2.7674198E-2,5.991741E-2,-1.1577038E-1,2.6815671E-2],"split_indices":[0,1,1,0,8,0,10,0,0,1,18,0,0,0,0],"split_type":[0,0,0,0,0,0,0,0,0,0,0,0,0,0,0],"sum_hessian":[1.1600461E3,3.801703E2,7.798758E2,3.523037E2,2.7866583E1,1.0011455E2,6.797613E2,7.682703E0,2.018388E1,5.585652E2,1.2119608E2,1.9762833E2,3.6093686E2,2.0728525E1,1.0046756E2],"tree_param":{"num_deleted":"0","num_feature":"19","num_nodes":"15","size_leaf_vector":"1"}},{"base_weights":[1.2197683E-2,-1.1375749E0,5.474883E-1,-6.030954E-2,-8.606781E-1,-5.986026E-2,7.829737E-1,5.4000437E-2,-5.984473E-2,1.0322258E0,2.9318106E-1,3.6878906E-2,5.975311E-2,-8.224796E-2,2.68203E-2],"categories":[],"categories_nodes":[],"categories_segments":[],"categories_sizes":[],"default_left":[0,0,0,0,0,0,0,0,0,0,0,0,0,0,0],"id":21,"left_children":[1,3,5,-1,7,-1,9,-1,-1,11,13,-1,-1,-1,-1],"loss_changes":[7.038425E2,5.656952E0,3.2153308E2,0E0,5.0841953E1,0E0,8.359015E1,0E0,0E0,2.0785156E1,1.10919624E2,0E0,0E0,0E0,0E0],"parents":[2147483647,0,0,1,1,2,2,4,4,6,6,9,9,10,10],"right_children":[2,4,6,-1,8,-1,10,-1,-1,12,14,-1,-1,-1,-1],"split_conditions":[5.575949E0,2.5649493E0,1.0986123E0,-6.030954E-2,4.6344746E-2,-5.986026E-2,2.1809958E-2,5.4000437E-2,-5.984473E-2,4.784689E-3,6.8965517E-3,3.6878906E-2,5.975311E-2,-8.224796E-2,2.68203E-2],"split_indices":[13,14,14,0,8,0,9,0,0,18,18,0,0,0,0],"split_type":[0,0,0,0,0,0,0,0,0,0,0,0,0,0,0],"sum_hessian":[1.1416833E3,3.622595E2,7.794239E2,2.873387E2,7.492077E1,9.215392E1,6.8726996E2,1.0692507E1,6.4228264E1,4.546103E2,2.3265968E2,1.6400018E2,2.906101E2,2.525341E1,2.0740628E2],"tree_param":{"num_deleted":"0","num_feature":"19","num_nodes":"15","size_leaf_vector":"1"}},{"base_weights":[6.8916534E-3,-1.1768754E0,5.3897846E-1,-5.9818536E-2,-7.9241824E-1,-5.9248716E-2,7.7562624E-1,5.9957043E-3,-5.5929393E-2,1.0226831E0,3.150793E-1,2.7126407E-2,5.5323776E-2,-7.417711E-2,2.612823E-2],"categories":[],"categories_nodes":[],"categories_segments":[],"categories_sizes":[],"default_left":[0,0,0,0,0,0,0,0,0,0,0,0,0,0,0],"id":22,"left_children":[1,3,5,-1,7,-1,9,-1,-1,11,13,-1,-1,-1,-1],"loss_changes":[6.979264E2,1.4283142E0,3.1279767E2,0E0,6.1233416E0,0E0,7.611157E1,0E0,0E0,1.6832733E1,8.895273E1,0E0,0E0,0E0,0E0],"parents":[2147483647,0,0,1,1,2,2,4,4,6,6,9,9,10,10],"right_children":[2,4,6,-1,8,-1,10,-1,-1,12,14,-1,-1,-1,-1],"split_conditions":[2.63E2,2.8E1,2E0,-5.9818536E-2,4.074E3,-5.9248716E-2,2.1809958E-2,5.9957043E-3,-5.5929393E-2,6E0,3E0,2.7126407E-2,5.5323776E-2,-7.417711E-2,2.612823E-2],"split_indices":[0,1,1,0,12,0,9,0,0,7,1,0,0,0,0],"split_type":[0,0,0,0,0,0,0,0,0,0,0,0,0,0,0],"sum_hessian":[1.1061482E3,3.4258286E2,7.6356537E2,3.2379175E2,1.8791111E1,9.162893E1,6.7193646E2,5.034586E0,1.3756525E1,4.3639694E2,2.3553952E2,6.612854E1,3.7026837E2,2.3675173E1,2.1186435E2],"tree_param":{"num_deleted":"0","num_feature":"19","num_nodes":"15","size_leaf_vector":"1"}},{"base_weights":[-8.290142E-2,-1.0750595E0,4.5521438E-1,3.7807596E-1,-1.1306518E0,-5.862778E-2,6.9822806E-1,-5.2605834E-2,7.265392E-2,-1.2061775E0,-8.32012E-1,1.0472423E0,2.60756E-1,-5.9229136E-2,-8.567489E-2,5.5897813E-2,-5.8741927E-2,5.751566E-2,3.624378E-2,-1.0409665E-1,1.9683227E-2],"categories":[],"categories_nodes":[],"categories_segments":[],"categories_sizes":[],"default_left":[0,0,0,0,0,0,0,0,0,0,0,0,0,0,0,0,0,0,0,0,0],"id":23,"left_children":[1,3,5,7,9,-1,11,-1,-1,13,15,17,19,-1,-1,-1,-1,-1,-1,-1,-1],"loss_changes":[5.5020166E2,2.9777374E1,2.6506055E2,2.3148716E1,6.6722107E0,0E0,8.846033E1,0E0,0E0,7.0788574E-1,5.0793194E1,9.720093E0,8.152286E1,0E0,0E0,0E0,0E0,0E0,0E0,0E0,0E0],"parents":[2147483647,0,0,1,1,2,2,3,3,4,4,6,6,9,9,10,10,11,11,12,12],"right_children":[2,4,6,8,10,-1,12,-1,-1,14,16,18,20,-1,-1,-1,-1,-1,-1,-1,-1],"split_conditions":[2.83E2,1.0548731E-1,2E0,4E0,1.2E1,-5.862778E-2,7.989538E-2,-5.2605834E-2,7.265392E-2,2.67E2,4.6344746E-2,4.7263894E-3,4.784689E-3,-5.9229136E-2,-8.567489E-2,5.5897813E-2,-5.8741927E-2,5.751566E-2,3.624378E-2,-1.0409665E-1,1.9683227E-2],"split_indices":[0,11,1,1,1,0,11,0,0,0,8,8,18,0,0,0,0,0,0,0,0],"split_type":[0,0,0,0,0,0,0,0,0,0,0,0,0,0,0,0,0,0,0,0,0],"sum_hessian":[1.0285082E3,3.6138602E2,6.671222E2,1.3036011E1,3.4835E2,8.610844E1,5.810138E2,5.5630918E0,7.4729195E0,2.7534247E2,7.300752E1,3.2227838E2,2.5873538E2,2.674886E2,7.853892E0,1.0534647E1,6.2472878E1,2.4201874E2,8.0259636E1,1.3063158E1,2.4567224E2],"tree_param":{"num_deleted":"0","num_feature":"19","num_nodes":"21","size_leaf_vector":"1"}},{"base_weights":[2.0117309E-2,-1.0657848E0,5.467903E-1,3.8615257E-1,-1.1409264E0,-5.8046054E-2,7.641114E-1,-5.44567E-2,6.833314E-2,-1.2016872E0,-8.8561636E-1,9.086344E-1,-0E0,-5.8805343E-2,-9.511472E-2,4.251532E-2,-5.8003098E-2,2.7897403E-2,5.6398865E-2,-7.8774504E-2,3.613389E-2],"categories":[],"categories_nodes":[],"categories_segments":[],"categories_sizes":[],"default_left":[0,0,0,0,0,0,0,0,0,0,0,0,0,0,0,0,0,0,0,0,0],"id":24,"left_children":[1,3,5,7,9,-1,11,-1,-1,13,15,17,19,-1,-1,-1,-1,-1,-1,-1,-1],"loss_changes":[6.0766516E2,3.837326E1,2.6641742E2,2.7200628E1,3.8499756E0,0E0,7.015134E1,0E0,0E0,2.179657E0,3.3224335E1,4.0305084E1,1.17366196E2,0E0,0E0,0E0,0E0,0E0,0E0,0E0,0E0],"parents":[2147483647,0,0,1,1,2,2,3,3,4,4,6,6,9,9,10,10,11,11,12,12],"right_children":[2,4,6,8,10,-1,12,-1,-1,14,16,18,20,-1,-1,-1,-1,-1,-1,-1,-1],"split_conditions":[2.89E2,1.0548731E-1,2E0,4E0,1.2E1,-5.8046054E-2,1.356153E-1,-5.44567E-2,6.833314E-2,2.75E2,4.6344746E-2,3E0,5E0,-5.8805343E-2,-9.511472E-2,4.251532E-2,-5.8003098E-2,2.7897403E-2,5.6398865E-2,-7.8774504E-2,3.613389E-2],"split_indices":[0,11,1,1,1,0,11,0,0,0,8,1,1,0,0,0,0,0,0,0,0],"split_type":[0,0,0,0,0,0,0,0,0,0,0,0,0,0,0,0,0,0,0,0,0],"sum_hessian":[1.0605808E3,3.459933E2,7.1458746E2,1.6755823E1,3.2923746E2,8.012922E1,6.3445825E2,6.605039E0,1.0150785E1,2.6263492E2,6.660253E1,5.3335706E2,1.0110123E2,2.561055E2,6.529411E0,8.756062E0,5.7846474E1,2.0677072E2,3.2658633E2,3.1409842E1,6.969139E1],"tree_param":{"num_deleted":"0","num_feature":"19","num_nodes":"21","size_leaf_vector":"1"}},{"base_weights":[1.3134566E-2,-1.1244721E0,5.017538E-1,-5.8172792E-2,-5.8039975E-1,-5.7588685E-2,7.1749556E-1,-5.512776E-2,5.2787226E-2,8.758643E-1,-5.190453E-2,2.6417702E-2,5.5384893E-2,-1.07204854E-1,1.9766754E-2],"categories":[],"categories_nodes":[],"categories_segments":[],"categories_sizes":[],"default_left":[0,0,0,0,0,0,0,0,0,0,0,0,0,0,0],"id":25,"left_children":[1,3,5,-1,7,-1,9,-1,-1,11,13,-1,-1,-1,-1],"loss_changes":[5.733049E2,5.7226562E0,2.5820917E2,0E0,2.0719963E1,0E0,7.798959E1,0E0,0E0,4.195746E1,1.03869286E2,0E0,0E0,0E0,0E0],"parents":[2147483647,0,0,1,1,2,2,4,4,6,6,9,9,10,10],"right_children":[2,4,6,-1,8,-1,10,-1,-1,12,14,-1,-1,-1,-1],"split_conditions":[5.575949E0,2.4E1,2E0,-5.8172792E-2,4.4188404E0,-5.7588685E-2,1.356153E-1,-5.512776E-2,5.2787226E-2,3E0,1.010101E-2,2.6417702E-2,5.5384893E-2,-1.07204854E-1,1.9766754E-2],"split_indices":[13,1,1,0,13,0,11,0,0,1,18,0,0,0,0],"split_type":[0,0,0,0,0,0,0,0,0,0,0,0,0,0,0],"sum_hessian":[1.029487E3,3.0886932E2,7.206177E2,2.869842E2,2.188514E1,8.261586E1,6.3800183E2,1.6884048E1,5.0010915E0,5.2908887E2,1.0891294E2,2.1320798E2,3.1588092E2,1.85527E1,9.0360245E1],"tree_param":{"num_deleted":"0","num_feature":"19","num_nodes":"15","size_leaf_vector":"1"}},{"base_weights":[2.1661095E-2,-1.0937409E0,4.9721113E-1,-5.7706773E-2,-3.5228866E-1,-5.7063874E-2,6.991932E-1,-5.462733E-2,6.2574536E-2,1.1149961E0,3.3431703E-1,5.68276E-2,4.2345367E-2,-1.513723E-1,2.235927E-2],"categories":[],"categories_nodes":[],"categories_segments":[],"categories_sizes":[],"default_left":[0,0,0,0,0,0,0,0,0,0,0,0,0,0,0],"id":26,"left_children":[1,3,5,-1,7,-1,9,-1,-1,11,13,-1,-1,-1,-1],"loss_changes":[5.27561E2,1.2754395E1,2.3155829E2,0E0,2.9790052E1,0E0,9.378131E1,0E0,0E0,5.1464844E-1,1.2729756E2,0E0,0E0,0E0,0E0],"parents":[2147483647,0,0,1,1,2,2,4,4,6,6,9,9,10,10],"right_children":[2,4,6,-1,8,-1,10,-1,-1,12,14,-1,-1,-1,-1],"split_conditions":[2.63E2,2.4E1,2E0,-5.7706773E-2,1.27E2,-5.7063874E-2,5.1954803E-3,-5.462733E-2,6.2574536E-2,4.7263894E-3,4.3956046E-3,5.68276E-2,4.2345367E-2,-1.513723E-1,2.235927E-2],"split_indices":[0,1,1,0,0,0,8,0,0,8,18,0,0,0,0],"split_type":[0,0,0,0,0,0,0,0,0,0,0,0,0,0,0],"sum_hessian":[9.926793E2,2.9626944E2,6.964099E2,2.7331528E2,2.2954168E1,7.586266E1,6.2054724E2,1.5965896E1,6.988272E0,2.889443E2,3.3160294E2,2.6409692E2,2.4847391E1,9.904046E0,3.2169888E2],"tree_param":{"num_deleted":"0","num_feature":"19","num_nodes":"15","size_leaf_vector":"1"}},{"base_weights":[5.819133E-2,-1.0835278E0,5.1602185E-1,-5.7076424E-2,-8.2058954E-1,-5.6608375E-2,7.0495665E-1,3.559566E-2,-5.6599792E-2,8.604882E-1,3.7397206E-2,2.6598945E-2,5.426943E-2,-5.766185E-2,3.32583E-2],"categories":[],"categories_nodes":[],"categories_segments":[],"categories_sizes":[],"default_left":[0,0,0,0,0,0,0,0,0,0,0,0,0,0,0],"id":27,"left_children":[1,3,5,-1,7,-1,9,-1,-1,11,13,-1,-1,-1,-1],"loss_changes":[5.306995E2,3.298584E0,2.264377E2,0E0,2.7755577E1,0E0,6.745572E1,0E0,0E0,3.824945E1,9.35176E1,0E0,0E0,0E0,0E0],"parents":[2147483647,0,0,1,1,2,2,4,4,6,6,9,9,10,10],"right_children":[2,4,6,-1,8,-1,10,-1,-1,12,14,-1,-1,-1,-1],"split_conditions":[2.63E2,2.921E3,1.0986123E0,-5.7076424E-2,3.691814E1,-5.6608375E-2,3.14146E-2,3.559566E-2,-5.6599792E-2,1.3862944E0,1.7917595E0,2.6598945E-2,5.426943E-2,-5.766185E-2,3.32583E-2],"split_indices":[0,12,14,0,17,0,9,0,0,14,14,0,0,0,0],"split_type":[0,0,0,0,0,0,0,0,0,0,0,0,0,0,0],"sum_hessian":[1.0133161E3,2.8958234E2,7.2373376E2,2.3419937E2,5.538297E1,7.386288E1,6.498709E2,9.081844E0,4.6301125E1,5.267152E2,1.231557E2,2.1560034E2,3.1111484E2,4.2173183E1,8.098252E1],"tree_param":{"num_deleted":"0","num_feature":"19","num_nodes":"15","size_leaf_vector":"1"}},{"base_weights":[2.4589749E-2,-1.0725647E0,5.076353E-1,-5.7397284E-2,-4.9450734E-1,-5.6103703E-2,6.9243807E-1,5.8472592E-2,-5.5248436E-2,1.0413836E0,3.7311655E-1,5.6067765E-2,3.8305476E-2,-1.2695193E-1,2.319879E-2],"categories":[],"categories_nodes":[],"categories_segments":[],"categories_sizes":[],"default_left":[0,0,0,0,0,0,0,0,0,0,0,0,0,0,0],"id":28,"left_children":[1,3,5,-1,7,-1,9,-1,-1,11,13,-1,-1,-1,-1],"loss_changes":[5.0276312E2,1.1903229E1,1.9913762E2,0E0,3.7204346E1,0E0,6.5472626E1,0E0,0E0,5.1675415E0,8.3262665E1,0E0,0E0,0E0,0E0],"parents":[2147483647,0,0,1,1,2,2,4,4,6,6,9,9,10,10],"right_children":[2,4,6,-1,8,-1,10,-1,-1,12,14,-1,-1,-1,-1],"split_conditions":[5.641907E0,1.8E1,2E0,-5.7397284E-2,2.8165879E-2,-5.6103703E-2,7.479087E-2,5.8472592E-2,-5.5248436E-2,4.7263894E-3,4.3956046E-3,5.6067765E-2,3.8305476E-2,-1.2695193E-1,2.319879E-2],"split_indices":[13,1,1,0,8,0,11,0,0,8,18,0,0,0,0],"split_type":[0,0,0,0,0,0,0,0,0,0,0,0,0,0,0],"sum_hessian":[9.467326E2,2.889669E2,6.5776575E2,2.5460637E2,3.4360508E1,6.641987E1,5.913459E2,8.932724E0,2.5427786E1,2.8133572E2,3.1001013E2,2.153392E2,6.599652E1,8.531131E0,3.01479E2],"tree_param":{"num_deleted":"0","num_feature":"19","num_nodes":"15","size_leaf_vector":"1"}},{"base_weights":[1.3874434E-2,-1.0228022E0,4.528024E-1,-5.6460585E-2,-6.4126694E-1,-5.574009E-2,6.3819116E-1,5.8535602E-2,-5.5746574E-2,7.9968274E-1,-2.1640092E-1,1.8168526E-2,5.271771E-2,-5.213945E-2,3.932165E-2],"categories":[],"categories_nodes":[],"categories_segments":[],"categories_sizes":[],"default_left":[0,0,0,0,0,0,0,0,0,0,0,0,0,0,0],"id":29,"left_children":[1,3,5,-1,7,-1,9,-1,-1,11,13,-1,-1,-1,-1],"loss_changes":[4.1509335E2,1.0114319E1,1.8695529E2,0E0,5.4245453E1,0E0,7.943828E1,0E0,0E0,5.314633E1,7.701045E1,0E0,0E0,0E0,0E0],"parents":[2147483647,0,0,1,1,2,2,4,4,6,6,9,9,10,10],"right_children":[2,4,6,-1,8,-1,10,-1,-1,12,14,-1,-1,-1,-1],"split_conditions":[2.67E2,1.2E1,2E0,-5.6460585E-2,4.6344746E-2,-5.574009E-2,1.0814901E-2,5.8535602E-2,-5.5746574E-2,3E0,6E0,1.8168526E-2,5.271771E-2,-5.213945E-2,3.932165E-2],"split_indices":[0,1,1,0,8,0,8,0,0,1,1,0,0,0,0],"split_type":[0,0,0,0,0,0,0,0,0,0,0,0,0,0,0],"sum_hessian":[9.103477E2,2.7032526E2,6.4002246E2,2.0963634E2,6.0688923E1,6.70987E1,5.7292377E2,1.2228129E1,4.8460793E1,4.820184E2,9.090538E1,1.7869362E2,3.0332477E2,4.986986E1,4.103552E1],"tree_param":{"num_deleted":"0","num_feature":"19","num_nodes":"15","size_leaf_vector":"1"}},{"base_weights":[1.6240532E-2,-1.0561364E0,4.4694546E-1,-5.6036215E-2,-7.9445684E-1,-5.5371027E-2,6.273496E-1,4.503566E-2,-5.530686E-2,1.0458459E0,3.0858782E-1,3.88084E-2,5.4983824E-2,-1.4598332E-1,2.0261737E-2],"categories":[],"categories_nodes":[],"categories_segments":[],"categories_sizes":[],"default_left":[0,0,0,0,0,0,0,0,0,0,0,0,0,0,0],"id":30,"left_children":[1,3,5,-1,7,-1,9,-1,-1,11,13,-1,-1,-1,-1],"loss_changes":[4.1436603E2,3.2625427E0,1.8016663E2,0E0,2.9878868E1,0E0,7.61559E1,0E0,0E0,2.5555725E0,1.0313008E2,0E0,0E0,0E0,0E0],"parents":[2147483647,0,0,1,1,2,2,4,4,6,6,9,9,10,10],"right_children":[2,4,6,-1,8,-1,10,-1,-1,12,14,-1,-1,-1,-1],"split_conditions":[2.67E2,1.2E1,2E0,-5.6036215E-2,4.6344746E-2,-5.5371027E-2,5.1954803E-3,4.503566E-2,-5.530686E-2,3.4305318E-3,4.282655E-3,3.88084E-2,5.4983824E-2,-1.4598332E-1,2.0261737E-2],"split_indices":[0,1,1,0,8,0,8,0,0,18,18,0,0,0,0],"split_type":[0,0,0,0,0,0,0,0,0,0,0,0,0,0,0],"sum_hessian":[8.952429E2,2.5604733E2,6.391956E2,2.0242076E2,5.3626583E1,6.587991E1,5.733157E2,7.9853063E0,4.5641277E1,2.4675761E2,3.2655804E2,4.3934303E1,2.0282332E2,8.61313E0,3.1794492E2],"tree_param":{"num_deleted":"0","num_feature":"19","num_nodes":"15","size_leaf_vector":"1"}},{"base_weights":[4.7083184E-2,-1.0035323E0,4.4999105E-1,-5.5636406E-2,-6.029512E-1,-5.4980237E-2,6.154032E-1,5.511126E-2,-5.4943014E-2,9.6649164E-1,2.500479E-1,5.5694487E-2,3.7237998E-2,-3.2672454E-3,4.9584623E-2],"categories":[],"categories_nodes":[],"categories_segments":[],"categories_sizes":[],"default_left":[0,0,0,0,0,0,0,0,0,0,0,0,0,0,0],"id":31,"left_children":[1,3,5,-1,7,-1,9,-1,-1,11,13,-1,-1,-1,-1],"loss_changes":[3.7929483E2,1.0021133E1,1.666597E2,0E0,4.820833E1,0E0,7.480025E1,0E0,0E0,8.734863E0,6.767289E1,0E0,0E0,0E0,0E0],"parents":[2147483647,0,0,1,1,2,2,4,4,6,6,9,9,10,10],"right_children":[2,4,6,-1,8,-1,10,-1,-1,12,14,-1,-1,-1,-1],"split_conditions":[2.63E2,1.2E1,2E0,-5.5636406E-2,3.691814E1,-5.4980237E-2,6.2938984E-3,5.511126E-2,-5.4943014E-2,4.1920473E-3,6E0,5.5694487E-2,3.7237998E-2,-3.2672454E-3,4.9584623E-2],"split_indices":[0,1,1,0,17,0,8,0,0,8,1,0,0,0,0],"split_type":[0,0,0,0,0,0,0,0,0,0,0,0,0,0,0],"sum_hessian":[8.941039E2,2.4735817E2,6.467457E2,1.9278014E2,5.4578033E1,6.177545E1,5.849703E2,1.1975648E1,4.2602386E1,2.973309E2,2.8763937E2,1.7591513E2,1.2141575E2,2.0236038E2,8.5279E1],"tree_param":{"num_deleted":"0","num_feature":"19","num_nodes":"15","size_leaf_vector":"1"}},{"base_weights":[3.4802176E-2,-1.0460862E0,4.4795737E-1,-5.5500515E-2,-2.6537785E-1,-5.4611266E-2,6.118357E-1,5.7931375E-2,-5.177198E-2,5.4433275E-2,3.5110873E-1,-5.533882E-2,2.2143867E-2],"categories":[],"categories_nodes":[],"categories_segments":[],"categories_sizes":[],"default_left":[0,0,0,0,0,0,0,0,0,0,0,0,0],"id":32,"left_children":[1,3,5,-1,7,-1,9,-1,-1,-1,11,-1,-1],"loss_changes":[3.798349E2,1.1305176E1,1.5596127E2,0E0,2.2276852E1,0E0,6.87166E1,0E0,0E0,0E0,4.881316E1,0E0,0E0],"parents":[2147483647,0,0,1,1,2,2,4,4,6,6,10,10],"right_children":[2,4,6,-1,8,-1,10,-1,-1,-1,12,-1,-1],"split_conditions":[2.67E2,3.218876E0,1.0986123E0,-5.5500515E-2,2.5628868E-2,-5.4611266E-2,4.7263894E-3,5.7931375E-2,-5.177198E-2,5.4433275E-2,4.282655E-3,-5.533882E-2,2.2143867E-2],"split_indices":[0,14,14,0,8,0,8,0,0,0,18,0,0],"split_type":[0,0,0,0,0,0,0,0,0,0,0,0,0],"sum_hessian":[8.4863654E2,2.3418706E2,6.1444946E2,2.1595486E2,1.823219E1,5.8487705E1,5.559618E2,6.176359E0,1.2055831E1,1.9527489E2,3.606869E2,2.0639917E1,3.4004697E2],"tree_param":{"num_deleted":"0","num_feature":"19","num_nodes":"13","size_leaf_vector":"1"}},{"base_weights":[4.493374E-2,-9.870084E-1,4.257168E-1,-5.5002987E-2,-6.1025333E-1,-5.429637E-2,5.8236736E-1,9.7237915E-1,-5.436604E-2,1.028549E0,2.8747734E-1,2.7208975E-2,6.0690124E-2,5.3914286E-2,4.1665405E-2,-1.3558327E-1,1.834169E-2],"categories":[],"categories_nodes":[],"categories_segments":[],"categories_sizes":[],"default_left":[0,0,0,0,0,0,0,0,0,0,0,0,0,0,0,0,0],"id":33,"left_children":[1,3,5,-1,7,-1,9,11,-1,13,15,-1,-1,-1,-1,-1,-1],"loss_changes":[3.317791E2,8.850113E0,1.4665192E2,0E0,4.2574802E1,0E0,7.3206924E1,5.2952385E-1,0E0,1.0677338E0,8.13161E1,0E0,0E0,0E0,0E0,0E0,0E0],"parents":[2147483647,0,0,1,1,2,2,4,4,6,6,7,7,9,9,10,10],"right_children":[2,4,6,-1,8,-1,10,12,-1,14,16,-1,-1,-1,-1,-1,-1],"split_conditions":[2.63E2,1.2E1,2E0,-5.5002987E-2,3.691814E1,-5.429637E-2,5.1954803E-3,3.31564E1,-5.436604E-2,4.1920473E-3,4.282655E-3,2.7208975E-2,6.0690124E-2,5.3914286E-2,4.1665405E-2,-1.3558327E-1,1.834169E-2],"split_indices":[0,1,1,0,17,0,8,17,0,8,18,0,0,0,0,0,0],"split_type":[0,0,0,0,0,0,0,0,0,0,0,0,0,0,0,0,0],"sum_hessian":[8.42411E2,2.2656183E2,6.158492E2,1.7258862E2,5.397322E1,5.721044E1,5.586388E2,1.2212243E1,4.1760975E1,2.2117073E2,3.3746802E2,5.7254963E0,6.486747E0,1.722546E2,4.8916138E1,7.811587E0,3.2965643E2],"tree_param":{"num_deleted":"0","num_feature":"19","num_nodes":"17","size_leaf_vector":"1"}},{"base_weights":[3.263019E-2,-9.7836953E-1,3.9855742E-1,-5.4703098E-2,-5.858986E-1,-5.395977E-2,5.480093E-1,4.8246767E-2,-5.3882E-2,8.869065E-1,1.5042247E-1,2.8762251E-2,5.2579727E-2,-7.9845704E-2,1.4976591E-2],"categories":[],"categories_nodes":[],"categories_segments":[],"categories_sizes":[],"default_left":[0,0,0,0,0,0,0,0,0,0,0,0,0,0,0],"id":34,"left_children":[1,3,5,-1,7,-1,9,-1,-1,11,13,-1,-1,-1,-1],"loss_changes":[3.005414E2,8.99292E0,1.32301E2,0E0,4.0323334E1,0E0,7.286487E1,0E0,0E0,1.4247864E1,6.574295E1,0E0,0E0,0E0,0E0],"parents":[2147483647,0,0,1,1,2,2,4,4,6,6,9,9,10,10],"right_children":[2,4,6,-1,8,-1,10,-1,-1,12,14,-1,-1,-1,-1],"split_conditions":[2.63E2,2.5649493E0,1.0986123E0,-5.4703098E-2,1.3894376E-1,-5.395977E-2,8.679235E-2,4.8246767E-2,-5.3882E-2,4.3956046E-3,5.235602E-3,2.8762251E-2,5.2579727E-2,-7.9845704E-2,1.4976591E-2],"split_indices":[0,14,14,0,9,0,11,0,0,18,18,0,0,0,0],"split_type":[0,0,0,0,0,0,0,0,0,0,0,0,0,0,0],"sum_hessian":[8.104815E2,2.1487328E2,5.956082E2,1.6437613E2,5.0497154E1,5.407127E1,5.415369E2,1.1876353E1,3.86208E1,2.9154553E2,2.4999142E2,1.0255912E2,1.889864E2,1.8839582E1,2.3115184E2],"tree_param":{"num_deleted":"0","num_feature":"19","num_nodes":"15","size_leaf_vector":"1"}},{"base_weights":[1.7609002E-2,-9.2984986E-1,4.0624788E-1,-1.12072E0,-3.4699547E-1,-5.361206E-2,5.545269E-1,-5.4548074E-2,-7.630979E-2,5.4405686E-2,-5.3574014E-2,5.1806647E-2,3.123631E-1,1.1602625E-3,4.274783E-2],"categories":[],"categories_nodes":[],"categories_segments":[],"categories_sizes":[],"default_left":[0,0,0,0,0,0,0,0,0,0,0,0,0,0,0],"id":35,"left_children":[1,3,5,7,9,-1,11,-1,-1,-1,-1,-1,13,-1,-1],"loss_changes":[2.902569E2,2.496959E1,1.2311953E2,1.5020752E-1,6.160729E1,0E0,5.889128E1,0E0,0E0,0E0,0E0,0E0,5.3266068E1,0E0,0E0],"parents":[2147483647,0,0,1,1,2,2,3,3,4,4,6,6,12,12],"right_children":[2,4,6,8,10,-1,12,-1,-1,-1,-1,-1,14,-1,-1],"split_conditions":[2.83E2,1.2E1,2E0,2.67E2,4.6344746E-2,-5.361206E-2,4.7263894E-3,-5.4548074E-2,-7.630979E-2,5.4405686E-2,-5.3574014E-2,5.1806647E-2,5E0,1.1602625E-3,4.274783E-2],"split_indices":[0,1,1,0,8,0,8,0,0,0,0,0,1,0,0],"split_type":[0,0,0,0,0,0,0,0,0,0,0,0,0,0,0],"sum_hessian":[7.86388E2,2.2826154E2,5.5812646E2,1.7112727E2,5.7134266E1,5.024348E1,5.0788297E2,1.6309465E2,8.032632E0,1.8952303E1,3.818196E1,1.6869577E2,3.391872E2,2.2206946E2,1.1711775E2],"tree_param":{"num_deleted":"0","num_feature":"19","num_nodes":"15","size_leaf_vector":"1"}},{"base_weights":[5.5508064E-3,-1.0664167E0,3.6680442E-1,-5.428512E-2,-3.10072E-2,-5.339056E-2,5.116277E-1,8.2253826E-1,1.0904778E-1,1.4250341E-2,4.7101934E-2,-1.9148698E-2,4.6356883E-2],"categories":[],"categories_nodes":[],"categories_segments":[],"categories_sizes":[],"default_left":[0,0,0,0,0,0,0,0,0,0,0,0,0],"id":36,"left_children":[1,3,5,-1,-1,-1,7,9,11,-1,-1,-1,-1],"loss_changes":[2.9279117E2,7.9615784E-1,1.180224E2,0E0,0E0,0E0,6.42231E1,1.8239838E1,9.118488E1,0E0,0E0,0E0,0E0],"parents":[2147483647,0,0,1,1,2,2,6,6,7,7,8,8],"right_children":[2,4,6,-1,-1,-1,8,10,12,-1,-1,-1,-1],"split_conditions":[2.63E2,2.8E1,2E0,-5.428512E-2,-3.10072E-2,-5.339056E-2,7.0497976E-3,6E0,6E0,1.4250341E-2,4.7101934E-2,-1.9148698E-2,4.6356883E-2],"split_indices":[0,1,1,0,0,0,8,7,1,0,0,0,0],"split_type":[0,0,0,0,0,0,0,0,0,0,0,0,0],"sum_hessian":[7.542444E2,1.8955089E2,5.646935E2,1.8011049E2,9.440398E0,5.1130672E1,5.135628E2,2.8904395E2,2.2451886E2,5.3338943E1,2.3570502E2,1.40455E2,8.4063866E1],"tree_param":{"num_deleted":"0","num_feature":"19","num_nodes":"13","size_leaf_vector":"1"}},{"base_weights":[3.6084626E-2,-1.0020516E0,3.9132604E-1,-5.384695E-2,-6.839808E-1,-5.303986E-2,5.2627385E-1,3.916199E-2,-5.29688E-2,9.8843604E-1,2.2950535E-1,5.3081878E-2,3.6421206E-2,2.517305E-3,4.9394313E-2],"categories":[],"categories_nodes":[],"categories_segments":[],"categories_sizes":[],"default_left":[0,0,0,0,0,0,0,0,0,0,0,0,0,0,0],"id":37,"left_children":[1,3,5,-1,7,-1,9,-1,-1,11,13,-1,-1,-1,-1],"loss_changes":[2.7345535E2,3.5897675E0,1.0878759E2,0E0,2.2348038E1,0E0,6.909573E1,0E0,0E0,2.807785E0,4.1934525E1,0E0,0E0,0E0,0E0],"parents":[2147483647,0,0,1,1,2,2,4,4,6,6,9,9,10,10],"right_children":[2,4,6,-1,8,-1,10,-1,-1,12,14,-1,-1,-1,-1],"split_conditions":[5.575949E0,2.921E3,2E0,-5.384695E-2,3.691814E1,-5.303986E-2,5.1954803E-3,3.916199E-2,-5.29688E-2,4.1920473E-3,7E0,5.3081878E-2,3.6421206E-2,2.517305E-3,4.9394313E-2],"split_indices":[13,12,1,0,17,0,8,0,0,8,1,0,0,0,0],"split_type":[0,0,0,0,0,0,0,0,0,0,0,0,0,0,0],"sum_hessian":[7.395978E2,1.8802437E2,5.515734E2,1.5000627E2,3.8018097E1,4.6253616E1,5.0531976E2,7.4697967E0,3.0548302E1,1.9655461E2,3.0876517E2,1.5066896E2,4.5885647E1,2.5073094E2,5.8034218E1],"tree_param":{"num_deleted":"0","num_feature":"19","num_nodes":"15","size_leaf_vector":"1"}},{"base_weights":[4.9838303E-3,4.5770246E-1,-7.880923E-1,-5.291281E-2,6.50106E-1,-1.2696322E0,-4.5234674E-1,2.6459366E-1,9.497829E-1,-1.1393386E0,-1.0998728E-1,8.2214695E-1,-8.83907E-1,2.8551728E-2,-7.236947E-2,3.2685265E-2,5.3317856E-2,-6.137831E-2,7.153964E-3,2.9915174E-2,5.6817174E-2,-1.6714193E-1,-3.4815308E-2],"categories":[],"categories_nodes":[],"categories_segments":[],"categories_sizes":[],"default_left":[0,0,0,0,0,0,0,0,0,0,0,0,0,0,0,0,0,0,0,0,0,0,0],"id":38,"left_children":[1,3,5,-1,7,9,11,13,15,17,-1,19,21,-1,-1,-1,-1,-1,-1,-1,-1,-1,-1],"loss_changes":[2.5475809E2,1.3243651E2,4.0934113E1,0E0,4.6026688E1,9.912659E0,8.5201294E1,9.369575E1,6.911865E0,1.0972946E1,0E0,1.9111557E0,5.0440414E1,0E0,0E0,0E0,0E0,0E0,0E0,0E0,0E0,0E0,0E0],"parents":[2147483647,0,0,1,1,2,2,4,4,5,5,6,6,7,7,8,8,9,9,11,11,12,12],"right_children":[2,4,6,-1,8,10,12,14,16,18,-1,20,22,-1,-1,-1,-1,-1,-1,-1,-1,-1,-1],"split_conditions":[1.06290085E-2,2E0,5E0,-5.291281E-2,3E0,3.76E2,1.6329244E-2,2.1809958E-2,7.614213E-3,3.66E2,-1.0998728E-1,7E0,2.5E-2,2.8551728E-2,-7.236947E-2,3.2685265E-2,5.3317856E-2,-6.137831E-2,7.153964E-3,2.9915174E-2,5.6817174E-2,-1.6714193E-1,-3.4815308E-2],"split_indices":[8,1,1,0,1,0,8,9,18,0,0,1,18,0,0,0,0,0,0,0,0,0,0],"split_type":[0,0,0,0,0,0,0,0,0,0,0,0,0,0,0,0,0,0,0,0,0,0,0],"sum_hessian":[7.076402E2,4.5083505E2,2.5680515E2,5.0209736E1,4.006253E2,1.0423201E2,1.5257315E2,1.7618845E2,2.2443686E2,9.347075E1,1.0761261E1,3.8307064E1,1.1426608E2,1.50054E2,2.6134447E1,6.551243E1,1.5892442E2,8.756707E1,5.903683E0,2.4251816E1,1.4055248E1,6.86981E0,1.0739627E2],"tree_param":{"num_deleted":"0","num_feature":"19","num_nodes":"23","size_leaf_vector":"1"}},{"base_weights":[-2.2329176E-2,-9.8361635E-1,3.0729824E-1,-5.337442E-2,-6.359033E-1,-5.2529324E-2,4.4028696E-1,4.057369E-2,-5.2306294E-2,9.4997025E-1,1.5803139E-1,5.2369416E-2,3.2258384E-2,-1.2781113E-1,1.2403711E-2],"categories":[],"categories_nodes":[],"categories_segments":[],"categories_sizes":[],"default_left":[0,0,0,0,0,0,0,0,0,0,0,0,0,0,0],"id":39,"left_children":[1,3,5,-1,7,-1,9,-1,-1,11,13,-1,-1,-1,-1],"loss_changes":[2.095434E2,4.075836E0,8.92946E1,0E0,2.1964424E1,0E0,6.4349434E1,0E0,0E0,3.8983154E0,7.137009E1,0E0,0E0,0E0,0E0],"parents":[2147483647,0,0,1,1,2,2,4,4,6,6,9,9,10,10],"right_children":[2,4,6,-1,8,-1,10,-1,-1,12,14,-1,-1,-1,-1],"split_conditions":[2.63E2,2.921E3,2E0,-5.337442E-2,3.691814E1,-5.2529324E-2,5.1954803E-3,4.057369E-2,-5.2306294E-2,4.1920473E-3,4.282655E-3,5.2369416E-2,3.2258384E-2,-1.2781113E-1,1.2403711E-2],"split_indices":[0,12,1,0,17,0,8,0,0,8,18,0,0,0,0],"split_type":[0,0,0,0,0,0,0,0,0,0,0,0,0,0,0],"sum_hessian":[6.591311E2,1.678761E2,4.9125504E2,1.3335245E2,3.4523655E1,4.3138325E1,4.481167E2,7.354185E0,2.716947E1,1.5874423E2,2.8937247E2,1.1820144E2,4.0542797E1,8.376336E0,2.8099612E2],"tree_param":{"num_deleted":"0","num_feature":"19","num_nodes":"15","size_leaf_vector":"1"}},{"base_weights":[3.4509495E-2,-9.1984886E-1,3.4381378E-1,-5.3232707E-2,-4.7201246E-1,-5.233526E-2,4.722507E-1,4.884046E-2,-5.2188445E-2,9.929975E-1,2.4001703E-1,2.5057927E-2,5.074672E-2,-7.3482424E-2,1.7724238E-2],"categories":[],"categories_nodes":[],"categories_segments":[],"categories_sizes":[],"default_left":[0,0,0,0,0,0,0,0,0,0,0,0,0,0,0],"id":40,"left_children":[1,3,5,-1,7,-1,9,-1,-1,11,13,-1,-1,-1,-1],"loss_changes":[2.0259172E2,1.0236267E1,9.303304E1,0E0,3.6651237E1,0E0,5.7129402E1,0E0,0E0,9.1677856E-1,6.503418E1,0E0,0E0,0E0,0E0],"parents":[2147483647,0,0,1,1,2,2,4,4,6,6,9,9,10,10],"right_children":[2,4,6,-1,8,-1,10,-1,-1,12,14,-1,-1,-1,-1],"split_conditions":[2.63E2,1.2E1,2E0,-5.3232707E-2,4.6344746E-2,-5.233526E-2,4.7263894E-3,4.884046E-2,-5.2188445E-2,1.9841E2,4.3956046E-3,2.5057927E-2,5.074672E-2,-7.3482424E-2,1.7724238E-2],"split_indices":[0,1,1,0,8,0,8,0,0,2,18,0,0,0,0],"split_type":[0,0,0,0,0,0,0,0,0,0,0,0,0,0,0],"sum_hessian":[6.8444E2,1.6696677E2,5.174732E2,1.24960815E2,4.200596E1,4.3085117E1,4.743881E2,1.1636335E1,3.0369621E1,1.4516725E2,3.2922083E2,7.41102E0,1.3775624E2,1.9861479E1,3.0935934E2],"tree_param":{"num_deleted":"0","num_feature":"19","num_nodes":"15","size_leaf_vector":"1"}},{"base_weights":[4.3349504E-2,-9.1550195E-1,3.4413335E-1,-5.303063E-2,-4.486763E-1,-5.2052587E-2,4.6187207E-1,5.1227886E-2,-5.1865526E-2,8.8376576E-1,1.7368053E-1,2.5760353E-2,5.149134E-2,-4.8372485E-3,4.458124E-2],"categories":[],"categories_nodes":[],"categories_segments":[],"categories_sizes":[],"default_left":[0,0,0,0,0,0,0,0,0,0,0,0,0,0,0],"id":41,"left_children":[1,3,5,-1,7,-1,9,-1,-1,11,13,-1,-1,-1,-1],"loss_changes":[1.9691664E2,1.0416214E1,8.520715E1,0E0,3.6231873E1,0E0,5.8089394E1,0E0,0E0,9.778915E0,5.5792343E1,0E0,0E0,0E0,0E0],"parents":[2147483647,0,0,1,1,2,2,4,4,6,6,9,9,10,10],"right_children":[2,4,6,-1,8,-1,10,-1,-1,12,14,-1,-1,-1,-1],"split_conditions":[2.63E2,1.2E1,2E0,-5.303063E-2,4.6344746E-2,-5.2052587E-2,5.818226E-3,5.1227886E-2,-5.1865526E-2,3.7593986E-3,6E0,2.5760353E-2,5.149134E-2,-4.8372485E-3,4.458124E-2],"split_indices":[0,1,1,0,8,0,8,0,0,18,1,0,0,0,0],"split_type":[0,0,0,0,0,0,0,0,0,0,0,0,0,0,0],"sum_hessian":[6.8087915E2,1.6201732E2,5.188618E2,1.2246383E2,3.9553486E1,3.996664E1,4.788952E2,1.1032039E1,2.8521448E1,1.9338237E2,2.8551285E2,5.636567E1,1.370167E2,2.0792168E2,7.7591156E1],"tree_param":{"num_deleted":"0","num_feature":"19","num_nodes":"15","size_leaf_vector":"1"}},{"base_weights":[2.0944018E-2,3.9617607E-1,-8.66798E-1,-1.2889634E-1,8.338529E-1,-1.2915618E0,-2.5726867E-1,1.708135E-1,-1.3475866E0,9.5607847E-1,2.4504285E-1,-5.31026E-2,-2.0531864E0,5.4935414E-2,-9.048616E-1,-5.395151E-2,2.4254536E-2,-5.089599E-2,-7.470846E-2,2.8234277E-2,5.216799E-2,-9.624244E-2,5.6896504E-2,-1.4710023E-1,-1.9932097E-2,-5.2289166E-2,-8.814339E-3],"categories":[],"categories_nodes":[],"categories_segments":[],"categories_sizes":[],"default_left":[0,0,0,0,0,0,0,0,0,0,0,0,0,0,0,0,0,0,0,0,0,0,0,0,0,0,0],"id":42,"left_children":[1,3,5,7,9,11,13,15,17,19,21,-1,23,-1,25,-1,-1,-1,-1,-1,-1,-1,-1,-1,-1,-1,-1],"loss_changes":[2.1328557E2,1.0363861E2,4.8756958E1,7.538074E1,1.7333069E1,1.704071E1,7.074777E1,6.555067E1,1.9589233E-1,6.186035E0,8.684219E1,0E0,3.4821404E1,0E0,5.2760506E0,0E0,0E0,0E0,0E0,0E0,0E0,0E0,0E0,0E0,0E0,0E0,0E0],"parents":[2147483647,0,0,1,1,2,2,3,3,4,4,5,5,6,6,7,7,8,8,9,9,10,10,12,12,14,14],"right_children":[2,4,6,8,10,12,14,16,18,20,22,-1,24,-1,26,-1,-1,-1,-1,-1,-1,-1,-1,-1,-1,-1,-1],"split_conditions":[1.2578769E-2,3E0,8E0,2.1809958E-2,1.0475844E-2,2.75E2,2.5628868E-2,2.739726E-3,2.81E2,6.8965517E-3,1.010101E-2,-5.31026E-2,3.91E2,5.4935414E-2,1.13E2,-5.395151E-2,2.4254536E-2,-5.089599E-2,-7.470846E-2,2.8234277E-2,5.216799E-2,-9.624244E-2,5.6896504E-2,-1.4710023E-1,-1.9932097E-2,-5.2289166E-2,-8.814339E-3],"split_indices":[8,1,1,9,8,0,8,18,0,18,18,0,0,0,0,0,0,0,0,0,0,0,0,0,0,0,0],"split_type":[0,0,0,0,0,0,0,0,0,0,0,0,0,0,0,0,0,0,0,0,0,0,0,0,0,0,0],"sum_hessian":[6.383975E2,4.4919678E2,1.8920076E2,2.0442686E2,2.4476991E2,1.1074363E2,7.845712E1,1.6470027E2,3.9726593E1,2.0203731E2,4.2732605E1,8.704041E1,2.3703213E1,2.508381E1,5.3373314E1,3.254019E1,1.3216008E2,1.4882389E1,2.4844202E1,3.8410374E1,1.6362694E2,1.2088183E1,3.0644419E1,1.487423E1,8.828982E0,4.424313E1,9.130185E0],"tree_param":{"num_deleted":"0","num_feature":"19","num_nodes":"27","size_leaf_vector":"1"}},{"base_weights":[4.1779377E-3,3.6174968E-1,-8.184509E-1,-5.1754963E-2,5.147448E-1,-1.3517522E0,-3.6676833E-1,2.2304748E-1,9.923763E-1,-5.2813977E-2,-1.2960505E-1,6.2098175E-1,-9.2795986E-1,2.8226167E-2,-2.9978497E-2,4.081298E-2,5.6761272E-2,-1.5127632E-2,5.5624474E-2,-5.2271914E-2,-1.7999534E-2],"categories":[],"categories_nodes":[],"categories_segments":[],"categories_sizes":[],"default_left":[0,0,0,0,0,0,0,0,0,0,0,0,0,0,0,0,0,0,0,0,0],"id":43,"left_children":[1,3,5,-1,7,9,11,13,15,-1,-1,17,19,-1,-1,-1,-1,-1,-1,-1,-1],"loss_changes":[1.7918823E2,9.126422E1,4.378224E1,0E0,5.31008E1,2.773552E1,5.6805653E1,6.76313E1,2.5267181E0,0E0,0E0,1.7333752E1,3.8279953E0,0E0,0E0,0E0,0E0,0E0,0E0,0E0,0E0],"parents":[2147483647,0,0,1,1,2,2,4,4,5,5,6,6,7,7,8,8,11,11,12,12],"right_children":[2,4,6,-1,8,10,12,14,16,-1,-1,18,20,-1,-1,-1,-1,-1,-1,-1,-1],"split_conditions":[1.6269591E-1,2E0,6E0,-5.1754963E-2,4E0,2.81E2,2.5628868E-2,9.418276E-2,1.2345679E-2,-5.2813977E-2,-1.2960505E-1,8E0,1.13E2,2.8226167E-2,-2.9978497E-2,4.081298E-2,5.6761272E-2,-1.5127632E-2,5.5624474E-2,-5.2271914E-2,-1.7999534E-2],"split_indices":[11,1,1,0,1,0,8,11,18,0,0,1,0,0,0,0,0,0,0,0,0],"split_type":[0,0,0,0,0,0,0,0,0,0,0,0,0,0,0,0,0,0,0,0,0],"sum_hessian":[6.0732416E2,4.237951E2,1.8352902E2,4.1201885E1,3.8259323E2,8.3145325E1,1.003837E2,2.3857062E2,1.4402261E2,6.87097E1,1.4435618E1,3.62665E1,6.4117195E1,1.6889578E2,6.9674835E1,6.782105E1,7.620155E1,1.2659849E1,2.360665E1,5.228572E1,1.1831478E1],"tree_param":{"num_deleted":"0","num_feature":"19","num_nodes":"21","size_leaf_vector":"1"}},{"base_weights":[4.2407326E-2,3.8216767E-1,-7.6673055E-1,2.1709489E-2,9.8830867E-1,-1.2545061E0,-1.1241642E-1,2.9420802E-1,-8.388509E-1,5.188185E-2,6.298386E-1,-5.243748E-2,-1.7984823E0,1.0508521E0,-8.606215E-1,-5.1283874E-2,2.770156E-2,-7.251624E-2,-1.4680679E-2,-7.3287897E-3,4.796483E-2,-1.283937E-1,-1.4747172E-2,2.6308639E-2,5.7254355E-2,-5.178975E-2,-3.358592E-3],"categories":[],"categories_nodes":[],"categories_segments":[],"categories_sizes":[],"default_left":[0,0,0,0,0,0,0,0,0,0,0,0,0,0,0,0,0,0,0,0,0,0,0,0,0,0,0],"id":44,"left_children":[1,3,5,7,9,11,13,15,17,-1,19,-1,21,23,25,-1,-1,-1,-1,-1,-1,-1,-1,-1,-1,-1,-1],"loss_changes":[1.6707803E2,9.341754E1,5.7074913E1,6.341301E1,2.0005798E0,9.331345E0,6.871622E1,7.102458E1,2.1073586E1,0E0,5.871521E0,0E0,2.9809341E1,7.583313E-1,6.495945E0,0E0,0E0,0E0,0E0,0E0,0E0,0E0,0E0,0E0,0E0,0E0,0E0],"parents":[2147483647,0,0,1,1,2,2,3,3,4,4,5,5,6,6,7,7,8,8,10,10,12,12,13,13,14,14],"right_children":[2,4,6,8,10,12,14,16,18,-1,20,-1,22,24,26,-1,-1,-1,-1,-1,-1,-1,-1,-1,-1,-1,-1],"split_conditions":[1.2705247E-2,4E0,8E0,9.775925E-2,1.1224115E-2,2.7E2,2.8165879E-2,2E0,6.8982E2,5.188185E-2,5E0,-5.243748E-2,3.91E2,1E1,1.13E2,-5.1283874E-2,2.770156E-2,-7.251624E-2,-1.4680679E-2,-7.3287897E-3,4.796483E-2,-1.283937E-1,-1.4747172E-2,2.6308639E-2,5.7254355E-2,-5.178975E-2,-3.358592E-3],"split_indices":[8,1,1,11,8,0,8,1,2,0,1,0,0,1,0,0,0,0,0,0,0,0,0,0,0,0,0],"split_type":[0,0,0,0,0,0,0,0,0,0,0,0,0,0,0,0,0,0,0,0,0,0,0,0,0,0,0],"sum_hessian":[6.058228E2,4.271233E2,1.7869955E2,2.6859613E2,1.5852716E2,1.0176561E2,7.6933945E1,2.0458736E2,6.400876E1,1.3744066E2,2.108651E1,7.609484E1,2.5670769E1,2.9903486E1,4.703046E1,3.310147E1,1.7148589E2,2.9302801E1,3.4705956E1,6.3569727E0,1.4729536E1,1.6468903E1,9.201867E0,5.7170496E0,2.4186436E1,3.8171665E1,8.858794E0],"tree_param":{"num_deleted":"0","num_feature":"19","num_nodes":"27","size_leaf_vector":"1"}},{"base_weights":[-1.5071448E-2,3.4492937E-1,-8.314235E-1,-5.132808E-2,4.914144E-1,-1.3435081E0,-3.8667777E-1,9.658886E-1,2.4332868E-1,-5.2545052E-2,-1.1379933E-1,4.926594E-1,-5.38055E-2,7.580085E-3,5.007821E-2,-7.2136514E-2,1.875129E-2,-2.2893554E-2,5.218466E-2],"categories":[],"categories_nodes":[],"categories_segments":[],"categories_sizes":[],"default_left":[0,0,0,0,0,0,0,0,0,0,0,0,0,0,0,0,0,0,0],"id":45,"left_children":[1,3,5,-1,7,9,11,13,15,-1,-1,17,-1,-1,-1,-1,-1,-1,-1],"loss_changes":[1.689339E2,8.055907E1,3.937815E1,0E0,4.213794E1,1.94505E1,5.8588745E1,3.319748E0,5.33999E1,0E0,0E0,2.2884497E1,0E0,0E0,0E0,0E0,0E0,0E0,0E0],"parents":[2147483647,0,0,1,1,2,2,4,4,5,5,6,6,7,7,8,8,11,11],"right_children":[2,4,6,-1,8,10,12,14,16,-1,-1,18,-1,-1,-1,-1,-1,-1,-1],"split_conditions":[1.2354614E-2,2E0,6E0,-5.132808E-2,4.7263894E-3,2.81E2,2.8165879E-2,3.4936377E-1,1.62E2,-5.2545052E-2,-1.1379933E-1,8E0,-5.38055E-2,7.580085E-3,5.007821E-2,-7.2136514E-2,1.875129E-2,-2.2893554E-2,5.218466E-2],"split_indices":[8,1,1,0,8,0,8,17,12,0,0,1,0,0,0,0,0,0,0],"split_type":[0,0,0,0,0,0,0,0,0,0,0,0,0,0,0,0,0,0,0],"sum_hessian":[5.726839E2,3.9774045E2,1.7494345E2,3.7736397E1,3.6000406E2,8.0271904E1,9.467155E1,1.2247296E2,2.3753108E2,6.2799862E1,1.7472044E1,4.1667305E1,5.3004246E1,5.47856E0,1.169944E2,1.6432966E1,2.2109811E2,1.5286229E1,2.6381075E1],"tree_param":{"num_deleted":"0","num_feature":"19","num_nodes":"19","size_leaf_vector":"1"}},{"base_weights":[7.311731E-3,4.124645E-1,-7.864854E-1,-1.7089324E-1,7.7212E-1,-1.7327535E0,-6.211648E-1,4.810831E-2,-6.440719E-2,4.6515566E-1,9.641225E-1,-4.618127E-2,-9.6468374E-2,5.181872E-1,-9.836458E-1,-5.211485E-2,1.9097554E-2,3.722435E-2,-5.2447986E-2,2.8978134E-2,5.0249886E-2,-4.848967E-2,4.6611317E-2,-4.41453E-2,-1.4091723E-1],"categories":[],"categories_nodes":[],"categories_segments":[],"categories_sizes":[],"default_left":[0,0,0,0,0,0,0,0,0,0,0,0,0,0,0,0,0,0,0,0,0,0,0,0,0],"id":46,"left_children":[1,3,5,7,9,11,13,15,-1,17,19,-1,-1,21,23,-1,-1,-1,-1,-1,-1,-1,-1,-1,-1],"loss_changes":[1.8572925E2,8.044316E1,2.9210762E1,3.605442E1,1.3371246E1,2.4457703E0,6.9832115E1,4.5273422E1,0E0,4.0208046E1,1.5322266E0,0E0,0E0,2.6205353E1,2.0737785E1,0E0,0E0,0E0,0E0,0E0,0E0,0E0,0E0,0E0,0E0],"parents":[2147483647,0,0,1,1,2,2,3,3,4,4,5,5,6,6,7,7,9,9,10,10,13,13,14,14],"right_children":[2,4,6,8,10,12,14,16,-1,18,20,-1,-1,22,24,-1,-1,-1,-1,-1,-1,-1,-1,-1,-1],"split_conditions":[1.0814901E-2,3E0,1.1450382E-2,2.1809958E-2,7.614213E-3,2.81E2,1.0401103E-1,2.739726E-3,-6.440719E-2,7.561995E-3,3.55E2,-4.618127E-2,-9.6468374E-2,2.89E2,3.22E2,-5.211485E-2,1.9097554E-2,3.722435E-2,-5.2447986E-2,2.8978134E-2,5.0249886E-2,-4.848967E-2,4.6611317E-2,-4.41453E-2,-1.4091723E-1],"split_indices":[8,5,18,9,18,0,10,18,0,8,0,0,0,0,0,0,0,0,0,0,0,0,0,0,0],"split_type":[0,0,0,0,0,0,0,0,0,0,0,0,0,0,0,0,0,0,0,0,0,0,0,0,0],"sum_hessian":[5.7560767E2,3.8149805E2,1.9410963E2,1.4559354E2,2.3590451E2,2.7368826E1,1.667408E2,1.2245713E2,2.3136404E1,9.229353E1,1.4361098E2,6.563641E0,2.0805185E1,4.007414E1,1.26666664E2,2.8136229E1,9.43209E1,7.84036E1,1.3889929E1,1.549139E1,1.281196E2,8.378728E0,3.169541E1,1.2152945E2,5.137216E0],"tree_param":{"num_deleted":"0","num_feature":"19","num_nodes":"25","size_leaf_vector":"1"}},{"base_weights":[6.01205E-3,-8.673643E-1,2.611984E-1,-5.2048754E-2,-3.4366053E-1,-5.0733197E-2,3.5937873E-1,5.2423473E-2,-5.042709E-2,9.671452E-1,1.2233886E-1,2.6311947E-2,4.973213E-2,-8.2027376E-2,1.33157E-2],"categories":[],"categories_nodes":[],"categories_segments":[],"categories_sizes":[],"default_left":[0,0,0,0,0,0,0,0,0,0,0,0,0,0,0],"id":47,"left_children":[1,3,5,-1,7,-1,9,-1,-1,11,13,-1,-1,-1,-1],"loss_changes":[1.2565473E2,1.1092293E1,5.498856E1,0E0,3.1940147E1,0E0,5.8292854E1,0E0,0E0,7.0310974E-1,7.479184E1,0E0,0E0,0E0,0E0],"parents":[2147483647,0,0,1,1,2,2,4,4,6,6,9,9,10,10],"right_children":[2,4,6,-1,8,-1,10,-1,-1,12,14,-1,-1,-1,-1],"split_conditions":[2.63E2,1.2E1,2E0,-5.2048754E-2,4.6344746E-2,-5.0733197E-2,4.7263894E-3,5.2423473E-2,-5.042709E-2,3.4936377E-1,4.56621E-3,2.6311947E-2,4.973213E-2,-8.2027376E-2,1.33157E-2],"split_indices":[0,1,1,0,8,0,8,0,0,17,18,0,0,0,0],"split_type":[0,0,0,0,0,0,0,0,0,0,0,0,0,0,0],"sum_hessian":[5.6204877E2,1.26457306E2,4.3559146E2,9.4087944E1,3.236936E1,3.0384808E1,4.0520667E2,1.0227553E1,2.2141808E1,1.1271225E2,2.9249442E2,8.012368E0,1.0469988E2,2.124714E1,2.7124725E2],"tree_param":{"num_deleted":"0","num_feature":"19","num_nodes":"15","size_leaf_vector":"1"}},{"base_weights":[-7.4741715E-3,-9.289199E-1,2.4700788E-1,-5.1829625E-2,-5.222738E-1,4.2971086E-2,8.9192027E-1,4.192834E-2,-5.0100602E-2,1.5968929E-1,-1.01510964E-1,9.709665E-1,-2.0204565E-2,-5.0569084E-2,1.4349087E-2,5.318407E-2,2.8073112E-2],"categories":[],"categories_nodes":[],"categories_segments":[],"categories_sizes":[],"default_left":[0,0,0,0,0,0,0,0,0,0,0,0,0,0,0,0,0],"id":48,"left_children":[1,3,5,-1,7,9,11,-1,-1,13,-1,15,-1,-1,-1,-1,-1],"loss_changes":[1.287446E2,4.5059967E0,5.6441017E1,0E0,1.8541254E1,7.9450516E1,1.101738E1,0E0,0E0,4.6618755E1,0E0,2.945778E0,0E0,0E0,0E0,0E0,0E0],"parents":[2147483647,0,0,1,1,2,2,4,4,5,5,6,6,9,9,11,11],"right_children":[2,4,6,-1,8,10,12,-1,-1,14,-1,16,-1,-1,-1,-1,-1],"split_conditions":[5.575949E0,2.921E3,6E0,-5.1829625E-2,3.691814E1,1.8336177E-1,6.693026E-2,4.192834E-2,-5.0100602E-2,2E0,-1.01510964E-1,4.510616E-2,-2.0204565E-2,-5.0569084E-2,1.4349087E-2,5.318407E-2,2.8073112E-2],"split_indices":[13,12,1,0,17,11,9,0,0,1,0,9,0,0,0,0,0],"split_type":[0,0,0,0,0,0,0,0,0,0,0,0,0,0,0,0,0],"sum_hessian":[5.467683E2,1.178374E2,4.2893088E2,9.174889E1,2.6088503E1,3.2676953E2,1.0216135E2,6.550561E0,1.9537941E1,3.1027274E2,1.6496786E1,9.659764E1,5.5637097E0,2.9661407E1,2.8061133E2,7.726302E1,1.9334612E1],"tree_param":{"num_deleted":"0","num_feature":"19","num_nodes":"17","size_leaf_vector":"1"}},{"base_weights":[4.2363456E-3,3.6353368E-1,-6.552722E-1,-1.018724E-1,8.2777536E-1,-1.1294069E0,-1.7932382E-1,1.4890641E-1,-6.5801255E-2,9.1827613E-1,3.2247108E-1,-7.3224217E-1,-1.0273101E-1,-5.1184602E-2,4.849828E-1,-5.0204646E-2,2.0434793E-2,3.742067E-2,5.0061144E-2,4.5062188E-2,-7.46535E-2,-5.241498E-2,4.2944923E-2,2.1644274E-3,5.199297E-2],"categories":[],"categories_nodes":[],"categories_segments":[],"categories_sizes":[],"default_left":[0,0,0,0,0,0,0,0,0,0,0,0,0,0,0,0,0,0,0,0,0,0,0,0,0],"id":49,"left_children":[1,3,5,7,9,11,13,15,-1,17,19,21,-1,-1,23,-1,-1,-1,-1,-1,-1,-1,-1,-1,-1],"loss_changes":[1.2749353E2,7.544586E1,4.2473907E1,5.3535046E1,7.5673676E0,3.302823E1,5.437646E1,4.3994167E1,0E0,1.1528702E0,3.0960924E1,3.5071342E1,0E0,0E0,1.3159487E1,0E0,0E0,0E0,0E0,0E0,0E0,0E0,0E0,0E0,0E0],"parents":[2147483647,0,0,1,1,2,2,3,3,4,4,5,5,6,6,7,7,9,9,10,10,11,11,14,14],"right_children":[2,4,6,8,10,12,14,16,-1,18,20,22,-1,-1,24,-1,-1,-1,-1,-1,-1,-1,-1,-1,-1],"split_conditions":[1.0814901E-2,3E0,6E0,2.1809958E-2,8.918857E-3,5.7137327E0,4.7361984E0,2E0,-6.5801255E-2,4E0,6.0450053E0,5.6489744E0,-1.0273101E-1,-5.1184602E-2,1.2E1,-5.0204646E-2,2.0434793E-2,3.742067E-2,5.0061144E-2,4.5062188E-2,-7.46535E-2,-5.241498E-2,4.2944923E-2,2.1644274E-3,5.199297E-2],"split_indices":[8,1,1,9,8,13,13,1,0,1,13,13,0,0,1,0,0,0,0,0,0,0,0,0,0],"split_type":[0,0,0,0,0,0,0,0,0,0,0,0,0,0,0,0,0,0,0,0,0,0,0,0,0],"sum_hessian":[5.3615686E2,3.4746167E2,1.8869518E2,1.7379546E2,1.7366621E2,9.373464E1,9.4960526E1,1.4470264E2,2.909281E1,1.4642592E2,2.7240288E1,6.691127E1,2.6823372E1,4.1641525E1,5.3319E1,2.6010904E1,1.1869174E2,5.172636E1,9.469956E1,2.1079176E1,6.161113E0,5.615992E1,1.0751354E1,3.0387836E1,2.2931164E1],"tree_param":{"num_deleted":"0","num_feature":"19","num_nodes":"25","size_leaf_vector":"1"}},{"base_weights":[3.8782876E-2,-8.476231E-1,2.7164623E-1,-5.1618338E-2,-3.1639907E-1,-5.0108302E-2,3.58395E-1,5.1824518E-2,-4.982042E-2,8.859061E-1,1.2768404E-1,2.771454E-2,5.110061E-2,-1.1800207E-1,1.08353095E-2],"categories":[],"categories_nodes":[],"categories_segments":[],"categories_sizes":[],"default_left":[0,0,0,0,0,0,0,0,0,0,0,0,0,0,0],"id":50,"left_children":[1,3,5,-1,7,-1,9,-1,-1,11,13,-1,-1,-1,-1],"loss_changes":[1.1073093E2,1.0489853E1,4.7261505E1,0E0,2.8973326E1,0E0,4.831346E1,0E0,0E0,4.7384872E0,6.2021748E1,0E0,0E0,0E0,0E0],"parents":[2147483647,0,0,1,1,2,2,4,4,6,6,9,9,10,10],"right_children":[2,4,6,-1,8,-1,10,-1,-1,12,14,-1,-1,-1,-1],"split_conditions":[2.63E2,1.2E1,2E0,-5.1618338E-2,1.3894376E-1,-5.0108302E-2,1.5575021E-2,5.1824518E-2,-4.982042E-2,3.5971224E-3,4.282655E-3,2.771454E-2,5.110061E-2,-1.1800207E-1,1.08353095E-2],"split_indices":[0,1,1,0,9,0,9,0,0,18,18,0,0,0,0],"split_type":[0,0,0,0,0,0,0,0,0,0,0,0,0,0,0],"sum_hessian":[5.346207E2,1.1058894E2,4.2403177E2,8.121367E1,2.9375277E1,2.6289759E1,3.97742E2,9.60155E0,1.9773726E1,1.20028496E2,2.7771353E2,3.661796E1,8.341053E1,8.674361E0,2.6903915E2],"tree_param":{"num_deleted":"0","num_feature":"19","num_nodes":"15","size_leaf_vector":"1"}},{"base_weights":[1.9131152E-2,-8.40219E-1,2.4344918E-1,-5.140465E-2,-2.974487E-1,-4.9956784E-2,3.305442E-1,4.965362E-2,-4.968599E-2,6.517076E-1,-4.058812E-2,1.194501E-2,4.8201066E-2,-2.2985296E-2,2.8147418E-2],"categories":[],"categories_nodes":[],"categories_segments":[],"categories_sizes":[],"default_left":[0,0,0,0,0,0,0,0,0,0,0,0,0,0,0],"id":51,"left_children":[1,3,5,-1,7,-1,9,-1,-1,11,13,-1,-1,-1,-1],"loss_changes":[9.832351E1,1.0325752E1,4.40668E1,0E0,2.676355E1,0E0,4.527007E1,0E0,0E0,2.5874977E1,4.493259E1,0E0,0E0,0E0,0E0],"parents":[2147483647,0,0,1,1,2,2,4,4,6,6,9,9,10,10],"right_children":[2,4,6,-1,8,-1,10,-1,-1,12,14,-1,-1,-1,-1],"split_conditions":[5.575949E0,1.2E1,2E0,-5.140465E-2,3.691814E1,-4.9956784E-2,2.1809958E-2,4.965362E-2,-4.968599E-2,4.784689E-3,1.3157895E-2,1.194501E-2,4.8201066E-2,-2.2985296E-2,2.8147418E-2],"split_indices":[13,1,1,0,17,0,9,0,0,18,18,0,0,0,0],"split_type":[0,0,0,0,0,0,0,0,0,0,0,0,0,0,0],"sum_hessian":[5.0831055E2,1.0455906E2,4.037515E2,7.68722E1,2.768686E1,2.5684902E1,3.780666E2,9.503137E0,1.8183722E1,2.0241661E2,1.7565E2,8.808003E1,1.1433657E2,1.039012E2,7.174879E1],"tree_param":{"num_deleted":"0","num_feature":"19","num_nodes":"15","size_leaf_vector":"1"}},{"base_weights":[2.0074582E-2,3.5882184E-1,-6.364047E-1,-6.8586245E-2,7.868572E-1,-1.3102738E0,-2.291446E-1,1.6184157E-1,-6.454922E-2,5.145591E-1,9.492732E-1,-5.1131018E-2,-8.728973E-2,-5.0828945E-2,2.6823455E-1,-4.9558952E-2,1.927499E-2,4.1664273E-2,3.841497E-3,4.9229704E-2,2.778734E-2,-1.307254E-2,3.869158E-2],"categories":[],"categories_nodes":[],"categories_segments":[],"categories_sizes":[],"default_left":[0,0,0,0,0,0,0,0,0,0,0,0,0,0,0,0,0,0,0,0,0,0,0],"id":52,"left_children":[1,3,5,7,9,11,13,15,-1,17,19,-1,-1,-1,21,-1,-1,-1,-1,-1,-1,-1,-1],"loss_changes":[1.1281207E2,6.137046E1,4.6920013E1,4.7730614E1,6.7711334E0,6.046158E0,4.299838E1,3.705304E1,0E0,8.910574E0,7.3711395E-1,0E0,0E0,0E0,1.8318647E1,0E0,0E0,0E0,0E0,0E0,0E0,0E0,0E0],"parents":[2147483647,0,0,1,1,2,2,3,3,4,4,5,5,6,6,7,7,9,9,10,10,14,14],"right_children":[2,4,6,8,10,12,14,16,-1,18,20,-1,-1,-1,22,-1,-1,-1,-1,-1,-1,-1,-1],"split_conditions":[1.0814901E-2,1.3862944E0,1.7917595E0,7.277313E-3,1.609438E0,2.81E2,1.13E2,1.0986123E0,-6.454922E-2,7.561995E-3,9.644745E-3,-5.1131018E-2,-8.728973E-2,-5.0828945E-2,2.1972246E0,-4.9558952E-2,1.927499E-2,4.1664273E-2,3.841497E-3,4.9229704E-2,2.778734E-2,-1.307254E-2,3.869158E-2],"split_indices":[8,14,14,8,14,0,0,14,0,8,8,0,0,0,14,0,0,0,0,0,0,0,0],"split_type":[0,0,0,0,0,0,0,0,0,0,0,0,0,0,0,0,0,0,0,0,0,0,0],"sum_hessian":[5.0539084E2,3.337695E2,1.7162132E2,1.6731042E2,1.6645909E2,6.372181E1,1.0789951E2,1.4143504E2,2.5875376E1,6.3979065E1,1.0248003E2,4.0530087E1,2.3191725E1,4.144397E1,6.645554E1,2.2347687E1,1.1908736E2,3.6366905E1,2.7612164E1,9.242809E1,1.0051934E1,3.2593884E1,3.386166E1],"tree_param":{"num_deleted":"0","num_feature":"19","num_nodes":"23","size_leaf_vector":"1"}},{"base_weights":[1.4617144E-2,3.2311183E-1,-7.9554754E-1,5.1436502E-2,9.152108E-1,-1.3184116E0,-3.4974572E-1,3.0828673E-1,-5.98029E-1,9.9095607E-1,6.925215E-1,-5.12744E-2,-9.4108246E-2,4.1765717E-1,-5.3118616E-2,-4.9382657E-2,2.4539547E-2,-6.895714E-2,-5.884095E-3,2.63165E-2,5.1232994E-2,5.4275747E-2,-2.4947666E-2,-2.4441235E-2,4.849893E-2],"categories":[],"categories_nodes":[],"categories_segments":[],"categories_sizes":[],"default_left":[0,0,0,0,0,0,0,0,0,0,0,0,0,0,0,0,0,0,0,0,0,0,0,0,0],"id":53,"left_children":[1,3,5,7,9,11,13,15,17,19,21,-1,-1,23,-1,-1,-1,-1,-1,-1,-1,-1,-1,-1,-1],"loss_changes":[1.2572222E2,5.8489044E1,3.1699493E1,4.2031292E1,1.0761948E0,8.242699E0,4.2248287E1,4.316357E1,2.6467295E1,6.015701E-1,1.5915704E1,0E0,0E0,1.924752E1,0E0,0E0,0E0,0E0,0E0,0E0,0E0,0E0,0E0,0E0,0E0],"parents":[2147483647,0,0,1,1,2,2,3,3,4,4,5,5,6,6,7,7,8,8,9,9,10,10,13,13],"right_children":[2,4,6,8,10,12,14,16,18,20,22,-1,-1,24,-1,-1,-1,-1,-1,-1,-1,-1,-1,-1,-1],"split_conditions":[1.2354614E-2,4E0,6E0,2.1809958E-2,9.644745E-3,2.81E2,2.8165879E-2,2E0,6.3383E2,1.2297583E0,3.94E2,-5.12744E-2,-9.4108246E-2,8E0,-5.3118616E-2,-4.9382657E-2,2.4539547E-2,-6.895714E-2,-5.884095E-3,2.63165E-2,5.1232994E-2,5.4275747E-2,-2.4947666E-2,-2.4441235E-2,4.849893E-2],"split_indices":[8,1,1,9,8,0,8,1,2,17,0,0,0,1,0,0,0,0,0,0,0,0,0,0,0],"split_type":[0,0,0,0,0,0,0,0,0,0,0,0,0,0,0,0,0,0,0,0,0,0,0,0,0],"sum_hessian":[5.0118723E2,3.6349872E2,1.376885E2,2.5003146E2,1.13467255E2,6.2363285E1,7.5325226E1,1.7965924E2,7.037222E1,8.175889E1,3.1708368E1,4.3011257E1,1.9352026E1,3.6400444E1,3.892478E1,2.1565521E1,1.5809372E2,2.6005005E1,4.436722E1,6.8541327E0,7.4904755E1,2.3973774E1,7.7345953E0,1.3756646E1,2.2643797E1],"tree_param":{"num_deleted":"0","num_feature":"19","num_nodes":"25","size_leaf_vector":"1"}},{"base_weights":[1.6710903E-2,3.3750656E-1,-5.4044443E-1,2.6369642E-2,9.2231905E-1,-1.1056098E0,-1.5891862E-1,2.6902425E-1,-1.2192243E0,1.5197336E-2,4.828149E-2,-7.447011E-1,-8.461737E-2,8.714428E-1,-6.050045E-1,-4.92399E-2,2.2764249E-2,-7.302721E-2,-1.8389842E-2,-5.142799E-2,4.709624E-2,1.0992548E-2,5.1957425E-2,-7.168801E-2,-3.972558E-3],"categories":[],"categories_nodes":[],"categories_segments":[],"categories_sizes":[],"default_left":[0,0,0,0,0,0,0,0,0,0,0,0,0,0,0,0,0,0,0,0,0,0,0,0,0],"id":54,"left_children":[1,3,5,7,9,11,13,15,17,-1,-1,19,-1,21,23,-1,-1,-1,-1,-1,-1,-1,-1,-1,-1],"loss_changes":[8.602242E1,5.548403E1,3.760438E1,6.086572E1,2.4178925E0,1.3440865E1,4.9323997E1,3.9812744E1,6.0237274E0,0E0,0E0,2.2803373E1,0E0,3.1900864E0,3.2308887E1,0E0,0E0,0E0,0E0,0E0,0E0,0E0,0E0,0E0,0E0],"parents":[2147483647,0,0,1,1,2,2,3,3,4,4,5,5,6,6,7,7,8,8,11,11,13,13,14,14],"right_children":[2,4,6,8,10,12,14,16,18,-1,-1,20,-1,22,24,-1,-1,-1,-1,-1,-1,-1,-1,-1,-1],"split_conditions":[1.356153E-1,7.832898E-3,5E0,2.1809958E-2,2.96E2,2.89E2,1.6079733E-2,2E0,6.8965517E-3,1.5197336E-2,4.828149E-2,2.83E2,-8.461737E-2,1.3888889E-2,9E0,-4.92399E-2,2.2764249E-2,-7.302721E-2,-1.8389842E-2,-5.142799E-2,4.709624E-2,1.0992548E-2,5.1957425E-2,-7.168801E-2,-3.972558E-3],"split_indices":[11,18,1,9,0,0,8,1,18,0,0,0,0,18,1,0,0,0,0,0,0,0,0,0,0],"split_type":[0,0,0,0,0,0,0,0,0,0,0,0,0,0,0,0,0,0,0,0,0,0,0,0,0],"sum_hessian":[4.7938303E2,3.0458472E2,1.7479832E2,1.9960516E2,1.0497955E2,6.957494E1,1.0522337E2,1.677835E2,3.1821665E1,7.547421E0,9.743214E1,4.4588024E1,2.4986917E1,3.14358E1,7.3787575E1,2.1077217E1,1.4670628E2,2.4145311E1,7.676354E0,3.8549595E1,6.0384307E0,7.029824E0,2.4405975E1,2.7889572E1,4.5898003E1],"tree_param":{"num_deleted":"0","num_feature":"19","num_nodes":"25","size_leaf_vector":"1"}},{"base_weights":[5.382629E-2,3.090196E-1,-7.825702E-1,-1.1292995E-2,8.3589697E-1,-1.3054861E0,-2.7436158E-1,2.765191E-1,-8.652747E-1,5.734034E-1,5.4240532E-2,-5.1518697E-2,-1.0323148E-1,7.454046E-1,-8.1304926E-1,-4.90351E-2,2.272136E-2,-7.570791E-2,-5.34416E-3,4.449764E-2,-2.3988856E-2,5.9349365E-3,4.8998307E-2,-5.003449E-2,-9.267E-3],"categories":[],"categories_nodes":[],"categories_segments":[],"categories_sizes":[],"default_left":[0,0,0,0,0,0,0,0,0,0,0,0,0,0,0,0,0,0,0,0,0,0,0,0,0],"id":55,"left_children":[1,3,5,7,9,11,13,15,17,19,-1,-1,-1,21,23,-1,-1,-1,-1,-1,-1,-1,-1,-1,-1],"loss_changes":[9.991623E1,6.0643345E1,2.8561058E1,5.535541E1,8.084152E0,8.750053E0,3.184316E1,3.801653E1,2.7625141E1,2.3273731E1,0E0,0E0,0E0,2.7297754E0,4.141407E0,0E0,0E0,0E0,0E0,0E0,0E0,0E0,0E0,0E0,0E0],"parents":[2147483647,0,0,1,1,2,2,3,3,4,4,5,5,6,6,7,7,8,8,9,9,13,13,14,14],"right_children":[2,4,6,8,10,12,14,16,18,20,-1,-1,-1,22,24,-1,-1,-1,-1,-1,-1,-1,-1,-1,-1],"split_conditions":[1.4610068E-2,4E0,7E0,7.561995E-3,1.3157895E-2,2.83E2,2.5628868E-2,2E0,7.832898E-3,9.471943E-3,5.4240532E-2,-5.1518697E-2,-1.0323148E-1,2.5454545E-2,1.13E2,-4.90351E-2,2.272136E-2,-7.570791E-2,-5.34416E-3,4.449764E-2,-2.3988856E-2,5.9349365E-3,4.8998307E-2,-5.003449E-2,-9.267E-3],"split_indices":[8,1,1,8,18,0,8,1,18,8,0,0,0,18,0,0,0,0,0,0,0,0,0,0,0],"split_type":[0,0,0,0,0,0,0,0,0,0,0,0,0,0,0,0,0,0,0,0,0,0,0,0,0],"sum_hessian":[4.6620605E2,3.5779053E2,1.0841553E2,2.2300467E2,1.3478586E2,5.256439E1,5.5851143E1,1.6721002E2,5.5794643E1,6.7406876E1,6.737898E1,4.0409187E1,1.2155199E1,1.9108429E1,3.6742714E1,2.0099392E1,1.4711064E2,2.9460068E1,2.6334576E1,5.2021084E1,1.5385791E1,5.73035E0,1.3378078E1,2.7706833E1,9.03588E0],"tree_param":{"num_deleted":"0","num_feature":"19","num_nodes":"25","size_leaf_vector":"1"}},{"base_weights":[1.4504895E-2,-5.0800074E-2,1.7133427E-1,-1.3553536E-1,5.2141136E-1,6.550491E-1,-3.3792257E-1,8.9300203E-1,-1.08299874E-1,-3.7625607E-2,4.7773108E-2,-6.251412E-2,-4.2835744E-3,3.0692915E-2,5.0926697E-2,-5.255222E-2,3.9058648E-2],"categories":[],"categories_nodes":[],"categories_segments":[],"categories_sizes":[],"default_left":[0,0,0,0,0,0,0,0,0,0,0,0,0,0,0,0,0],"id":56,"left_children":[1,-1,3,5,7,9,11,13,15,-1,-1,-1,-1,-1,-1,-1,-1],"loss_changes":[7.423688E1,0E0,4.298738E1,3.432393E1,4.3885353E1,1.9226807E1,3.9024696E1,3.3353806E0,5.964245E1,0E0,0E0,0E0,0E0,0E0,0E0,0E0,0E0],"parents":[2147483647,0,0,2,2,3,3,4,4,5,5,6,6,7,7,8,8],"right_children":[2,-1,4,6,8,10,12,14,16,-1,-1,-1,-1,-1,-1,-1,-1],"split_conditions":[1.13E2,-5.0800074E-2,4E0,1.2075972E-2,1.6455998E-1,2.739726E-3,4.282655E-3,1.0471204E-2,8E0,-3.7625607E-2,4.7773108E-2,-6.251412E-2,-4.2835744E-3,3.0692915E-2,5.0926697E-2,-5.255222E-2,3.9058648E-2],"split_indices":[0,0,1,9,11,18,18,18,1,0,0,0,0,0,0,0,0],"split_type":[0,0,0,0,0,0,0,0,0,0,0,0,0,0,0,0,0],"sum_hessian":[4.5779333E2,5.9659847E1,3.9813348E2,2.1233372E2,1.8579974E2,4.2721226E1,1.696125E2,1.1668498E2,6.911476E1,7.190925E0,3.55303E1,3.5794704E1,1.338178E2,3.8270355E1,7.841463E1,3.351902E1,3.559574E1],"tree_param":{"num_deleted":"0","num_feature":"19","num_nodes":"17","size_leaf_vector":"1"}},{"base_weights":[2.212363E-2,2.5147787E-1,-7.1805066E-1,-1.8544275E-1,5.817148E-1,-1.2770091E0,-2.1173646E-1,5.398497E-2,-6.0085595E-2,3.6642203E-1,9.517421E-1,-5.118419E-2,-9.521883E-2,-4.9749225E-2,4.8602757E-1,-2.0438055E-2,2.3042582E-2,3.6989663E-2,-1.3609598E-2,3.0257924E-2,5.183908E-2,-8.094339E-3,4.1435726E-2],"categories":[],"categories_nodes":[],"categories_segments":[],"categories_sizes":[],"default_left":[0,0,0,0,0,0,0,0,0,0,0,0,0,0,0,0,0,0,0,0,0,0,0],"id":57,"left_children":[1,3,5,7,9,11,13,15,-1,17,19,-1,-1,-1,21,-1,-1,-1,-1,-1,-1,-1,-1],"loss_changes":[7.657807E1,4.9871937E1,2.9772324E1,3.6428997E1,1.5184975E1,5.7695465E0,3.183329E1,2.3059298E1,0E0,3.0318169E1,1.3167038E0,0E0,0E0,0E0,7.0597596E0,0E0,0E0,0E0,0E0,0E0,0E0,0E0,0E0],"parents":[2147483647,0,0,1,1,2,2,3,3,4,4,5,5,6,6,7,7,9,9,10,10,14,14],"right_children":[2,4,6,8,10,12,14,16,-1,18,20,-1,-1,-1,22,-1,-1,-1,-1,-1,-1,-1,-1],"split_conditions":[1.4610068E-2,3E0,7E0,2.1809958E-2,5E0,5.6489744E0,4.7361984E0,6E0,-6.0085595E-2,5.9254173E-2,1.3157895E-2,-5.118419E-2,-9.521883E-2,-4.9749225E-2,1.1E1,-2.0438055E-2,2.3042582E-2,3.6989663E-2,-1.3609598E-2,3.0257924E-2,5.183908E-2,-8.094339E-3,4.1435726E-2],"split_indices":[8,1,1,9,1,13,13,7,0,10,18,0,0,0,1,0,0,0,0,0,0,0,0],"split_type":[0,0,0,0,0,0,0,0,0,0,0,0,0,0,0,0,0,0,0,0,0,0,0],"sum_hessian":[4.4930167E2,3.4362088E2,1.0568079E2,1.4797626E2,1.956446E2,4.941176E1,5.6269035E1,1.2044785E2,2.7528404E1,1.25111534E2,7.053308E1,3.7187065E1,1.2224691E1,2.6377426E1,2.9891607E1,5.6236897E1,6.421095E1,7.895056E1,4.6160976E1,1.5727364E1,5.4805714E1,1.0422218E1,1.9469389E1],"tree_param":{"num_deleted":"0","num_feature":"19","num_nodes":"23","size_leaf_vector":"1"}},{"base_weights":[2.1071244E-2,-7.645812E-1,2.3143926E-1,-5.275616E-2,-4.5364734E-2,7.232491E-1,5.6647778E-2,5.000455E-2,-4.8309427E-2,-4.5483682E-2,9.056729E-1,-1.5140302E0,2.3230937E-1,1.5457146E-2,4.7818642E-2,-9.942218E-2,-6.6631804E-3,3.61891E-2,1.6969458E-3],"categories":[],"categories_nodes":[],"categories_segments":[],"categories_sizes":[],"default_left":[0,0,0,0,0,0,0,0,0,0,0,0,0,0,0,0,0,0,0],"id":58,"left_children":[1,3,5,-1,7,9,11,-1,-1,-1,13,15,17,-1,-1,-1,-1,-1,-1],"loss_changes":[7.104955E1,1.880943E1,2.905442E1,0E0,2.720684E1,2.7261074E1,6.9646194E1,0E0,0E0,0E0,2.0090714E0,1.6151634E1,2.2053143E1,0E0,0E0,0E0,0E0,0E0,0E0],"parents":[2147483647,0,0,1,1,2,2,4,4,5,5,6,6,10,10,11,11,12,12],"right_children":[2,4,6,-1,8,10,12,-1,-1,-1,14,16,18,-1,-1,-1,-1,-1,-1],"split_conditions":[2.83E2,1.2E1,4.7263894E-3,-5.275616E-2,4.6344746E-2,2E0,4.3956046E-3,5.000455E-2,-4.8309427E-2,-4.5483682E-2,3.4936377E-1,4.28E2,7.0497976E-3,1.5457146E-2,4.7818642E-2,-9.942218E-2,-6.6631804E-3,3.61891E-2,1.6969458E-3],"split_indices":[0,1,8,0,8,1,18,0,0,0,17,12,8,0,0,0,0,0,0],"split_type":[0,0,0,0,0,0,0,0,0,0,0,0,0,0,0,0,0,0,0],"sum_hessian":[4.2813583E2,8.976911E1,3.383667E2,6.3507774E1,2.6261335E1,8.775134E1,2.5061537E2,1.2207214E1,1.4054121E1,8.362417E0,7.938892E1,2.4385365E1,2.2623E2,6.92931E0,7.245962E1,1.776799E1,6.617375E0,6.4147835E1,1.6208217E2],"tree_param":{"num_deleted":"0","num_feature":"19","num_nodes":"19","size_leaf_vector":"1"}},{"base_weights":[4.1238464E-2,2.7047116E-1,-7.434302E-1,2.6918635E-2,7.3792756E-1,-1.2672642E0,-1.4882012E-1,7.826715E-1,-1.4592163E-1,9.539749E-1,4.0782326E-1,-5.029402E-2,-9.096179E-2,4.7432583E-2,-7.7871734E-1,4.4808026E-2,6.7208605E-3,-6.577507E-2,-2.7432416E-3,1.0893436E-2,5.051704E-2,4.8457745E-2,-2.8668268E-2,-5.2323807E-3,-4.936419E-2],"categories":[],"categories_nodes":[],"categories_segments":[],"categories_sizes":[],"default_left":[0,0,0,0,0,0,0,0,0,0,0,0,0,0,0,0,0,0,0,0,0,0,0,0,0],"id":59,"left_children":[1,3,5,7,9,11,13,15,17,19,21,-1,-1,-1,23,-1,-1,-1,-1,-1,-1,-1,-1,-1,-1],"loss_changes":[7.683698E1,3.7561485E1,2.974448E1,2.8737974E1,7.542549E0,5.2615433E0,3.2828884E1,2.789978E0,1.8820051E1,2.4554138E0,2.6305038E1,0E0,0E0,0E0,4.021387E0,0E0,0E0,0E0,0E0,0E0,0E0,0E0,0E0,0E0,0E0],"parents":[2147483647,0,0,1,1,2,2,3,3,4,4,5,5,6,6,7,7,8,8,9,9,10,10,14,14],"right_children":[2,4,6,8,10,12,14,16,18,20,22,-1,-1,-1,24,-1,-1,-1,-1,-1,-1,-1,-1,-1,-1],"split_conditions":[9.484054E-2,4E0,8E0,2.4548803E-2,6.2590316E-2,2.75E2,1.6608876E-1,6.85E2,8.8E1,1.2005477E0,3.94E2,-5.029402E-2,-9.096179E-2,4.7432583E-2,3.379409E1,4.4808026E-2,6.7208605E-3,-6.577507E-2,-2.7432416E-3,1.0893436E-2,5.051704E-2,4.8457745E-2,-2.8668268E-2,-5.2323807E-3,-4.936419E-2],"split_indices":[10,1,1,10,10,0,10,0,12,17,0,0,0,0,17,0,0,0,0,0,0,0,0,0,0],"split_type":[0,0,0,0,0,0,0,0,0,0,0,0,0,0,0,0,0,0,0,0,0,0,0,0,0],"sum_hessian":[4.2532162E2,3.2976654E2,9.5555084E1,2.1764264E2,1.1212391E2,5.0110115E1,4.5444965E1,3.996107E1,1.7768156E2,6.64444E1,4.5679516E1,3.604477E1,1.4065344E1,1.6329403E1,2.9115564E1,3.3550713E1,6.4103594E0,1.1783466E1,1.658981E2,5.1982017E0,6.1246193E1,2.9129118E1,1.65504E1,7.348152E0,2.1767412E1],"tree_param":{"num_deleted":"0","num_feature":"19","num_nodes":"25","size_leaf_vector":"1"}},{"base_weights":[2.1640893E-2,-8.7064964E-1,2.0569333E-1,-5.0424147E-2,-4.6063468E-1,5.3486586E-2,7.92895E-1,3.3758286E-2,-4.802645E-2,1.5155126E-1,-7.734769E-2,5.0941236E-2,2.2095634E-1,-7.6880255E-3,2.3887439E-2,-6.041476E-2,4.1505706E-2],"categories":[],"categories_nodes":[],"categories_segments":[],"categories_sizes":[],"default_left":[0,0,0,0,0,0,0,0,0,0,0,0,0,0,0,0,0],"id":60,"left_children":[1,3,5,-1,7,9,11,-1,-1,13,-1,-1,15,-1,-1,-1,-1],"loss_changes":[6.9706924E1,3.489254E0,3.1351612E1,0E0,1.2191101E1,4.418296E1,8.992523E0,0E0,0E0,2.6563656E1,0E0,0E0,2.0009039E1,0E0,0E0,0E0,0E0],"parents":[2147483647,0,0,1,1,2,2,4,4,5,5,6,6,9,9,12,12],"right_children":[2,4,6,-1,8,10,12,-1,-1,14,-1,-1,16,-1,-1,-1,-1],"split_conditions":[2.63E2,2.5649493E0,1.9459101E0,-5.0424147E-2,4.6344746E-2,1.8336177E-1,1.5044992E-2,3.3758286E-2,-4.802645E-2,1.3862944E0,-7.734769E-2,5.0941236E-2,2.3025851E0,-7.6880255E-3,2.3887439E-2,-6.041476E-2,4.1505706E-2],"split_indices":[0,14,14,0,8,11,8,0,0,14,0,0,14,0,0,0,0],"split_type":[0,0,0,0,0,0,0,0,0,0,0,0,0,0,0,0,0],"sum_hessian":[4.227659E2,7.1561295E1,3.512046E2,5.2282234E1,1.9279062E1,2.7991107E2,7.129351E1,5.723697E0,1.3555366E1,2.6466208E2,1.5248999E1,5.042013E1,2.0873383E1,1.368223E2,1.2783979E2,5.894814E0,1.4978568E1],"tree_param":{"num_deleted":"0","num_feature":"19","num_nodes":"17","size_leaf_vector":"1"}},{"base_weights":[8.1198156E-2,-5.0204366E-2,2.1696262E-1,-4.869023E-2,2.8464633E-1,8.43283E-1,1.2663555E-1,1.5607794E-2,4.4369325E-2,8.871066E-3,-9.866541E-2],"categories":[],"categories_nodes":[],"categories_segments":[],"categories_sizes":[],"default_left":[0,0,0,0,0,0,0,0,0,0,0],"id":61,"left_children":[1,-1,3,-1,5,7,9,-1,-1,-1,-1],"loss_changes":[6.4598625E1,0E0,3.1619661E1,0E0,3.2423923E1,1.5047112E0,3.1039585E1,0E0,0E0,0E0,0E0],"parents":[2147483647,0,0,2,2,4,4,5,5,6,6],"right_children":[2,-1,4,-1,6,8,10,-1,-1,-1,-1],"split_conditions":[4.7361984E0,-5.0204366E-2,2E0,-4.869023E-2,4.7263894E-3,3.4936377E-1,6.3099184E0,1.5607794E-2,4.4369325E-2,8.871066E-3,-9.866541E-2],"split_indices":[13,0,1,0,8,17,13,0,0,0,0],"split_type":[0,0,0,0,0,0,0,0,0,0,0],"sum_hessian":[4.3647858E2,4.773757E1,3.88741E2,2.0108303E1,3.686327E2,8.0182625E1,2.8845007E2,6.940858E0,7.324177E1,2.8257922E2,5.8708644E0],"tree_param":{"num_deleted":"0","num_feature":"19","num_nodes":"11","size_leaf_vector":"1"}},{"base_weights":[6.3658185E-2,2.5400472E-1,-8.522526E-1,6.653706E-2,8.9892906E-1,-1.2343165E0,-1.2982872E-1,1.5937832E-1,-6.4407304E-2,7.17914E-1,5.241698E-2,-5.1058453E-2,-1.00141406E-1,4.7976255E-2,-4.9960025E-2,-4.835623E-2,1.2481934E-2,4.325831E-2,-2.3121592E-3],"categories":[],"categories_nodes":[],"categories_segments":[],"categories_sizes":[],"default_left":[0,0,0,0,0,0,0,0,0,0,0,0,0,0,0,0,0,0,0],"id":62,"left_children":[1,3,5,7,9,11,13,15,-1,17,-1,-1,-1,-1,-1,-1,-1,-1,-1],"loss_changes":[7.377034E1,4.2213852E1,1.9794666E1,3.439292E1,1.1999588E0,5.417343E0,2.5953653E1,2.6218708E1,0E0,4.5186157E0,0E0,0E0,0E0,0E0,0E0,0E0,0E0,0E0,0E0],"parents":[2147483647,0,0,1,1,2,2,3,3,4,4,5,5,6,6,7,7,9,9],"right_children":[2,4,6,8,10,12,14,16,-1,18,-1,-1,-1,-1,-1,-1,-1,-1,-1],"split_conditions":[1.0593623E-1,1.7917595E0,2.4849067E0,8.015398E-2,1.6666668E-2,2.83E2,1.6608876E-1,1.0986123E0,-6.4407304E-2,8.2427256E-2,5.241698E-2,-5.1058453E-2,-1.00141406E-1,4.7976255E-2,-4.9960025E-2,-4.835623E-2,1.2481934E-2,4.325831E-2,-2.3121592E-3],"split_indices":[10,14,14,10,18,0,10,14,0,10,0,0,0,0,0,0,0,0,0],"split_type":[0,0,0,0,0,0,0,0,0,0,0,0,0,0,0,0,0,0,0],"sum_hessian":[4.2124106E2,3.4944955E2,7.17915E1,2.7172293E2,7.772663E1,4.640341E1,2.5388086E1,2.5519002E2,1.6532913E1,3.807364E1,3.9652996E1,3.825284E1,8.150574E0,1.117131E1,1.4216776E1,1.8127337E1,2.3706268E2,3.192115E1,6.1524897E0],"tree_param":{"num_deleted":"0","num_feature":"19","num_nodes":"19","size_leaf_vector":"1"}},{"base_weights":[3.2121424E-2,-8.125378E-1,2.218226E-1,-5.2814096E-2,-1.5409619E-1,7.808117E-1,7.368741E-2,4.4434108E-2,-4.725554E-2,-4.3713126E-2,4.8363063E-2,-1.441821E0,1.9588342E-1,-1.2817358E-2,-9.688589E-2,1.5331174E-2,-2.1973237E-2],"categories":[],"categories_nodes":[],"categories_segments":[],"categories_sizes":[],"default_left":[0,0,0,0,0,0,0,0,0,0,0,0,0,0,0,0,0],"id":63,"left_children":[1,3,5,-1,7,9,11,-1,-1,-1,-1,13,15,-1,-1,-1,-1],"loss_changes":[6.4317726E1,1.1527706E1,2.702147E1,0E0,1.8303648E1,2.1986214E1,4.8412952E1,0E0,0E0,0E0,0E0,1.0747932E1,1.7153236E1,0E0,0E0,0E0,0E0],"parents":[2147483647,0,0,1,1,2,2,4,4,5,5,6,6,11,11,12,12],"right_children":[2,4,6,-1,8,10,12,-1,-1,-1,-1,14,16,-1,-1,-1,-1],"split_conditions":[2.83E2,1.2E1,4.265726E-3,-5.2814096E-2,4.6344746E-2,2E0,3.8314175E-3,4.4434108E-2,-4.725554E-2,-4.3713126E-2,4.8363063E-2,4.7263894E-3,3.8737424E2,-1.2817358E-2,-9.688589E-2,1.5331174E-2,-2.1973237E-2],"split_indices":[0,1,8,0,8,1,18,0,0,0,0,8,3,0,0,0,0],"split_type":[0,0,0,0,0,0,0,0,0,0,0,0,0,0,0,0,0],"sum_hessian":[3.9964545E2,7.2595955E1,3.270495E2,5.243084E1,2.0165112E1,6.747734E1,2.5957217E2,8.590517E0,1.15745945E1,6.4041023E0,6.107324E1,1.8500933E1,2.4107123E2,5.963466E0,1.2537466E1,2.0586424E2,3.520699E1],"tree_param":{"num_deleted":"0","num_feature":"19","num_nodes":"17","size_leaf_vector":"1"}},{"base_weights":[2.0176029E-2,2.2020075E-1,-7.283863E-1,-2.1053202E-1,5.595233E-1,-1.2442892E0,-2.3121168E-1,1.0648442E-1,-6.5601714E-2,8.393499E-1,1.7134002E-1,-7.788042E-2,-4.8802435E-2,6.456629E-1,-5.261929E-2,-8.381949E-3,3.854002E-2,2.6995052E-2,4.492188E-2,-5.0496865E-2,4.1099053E-2,7.301997E-3,4.8451614E-2],"categories":[],"categories_nodes":[],"categories_segments":[],"categories_sizes":[],"default_left":[0,0,0,0,0,0,0,0,0,0,0,0,0,0,0,0,0,0,0,0,0,0,0],"id":64,"left_children":[1,3,5,7,9,11,13,15,-1,17,19,-1,-1,21,-1,-1,-1,-1,-1,-1,-1,-1,-1],"loss_changes":[5.869743E1,4.541055E1,2.0760365E1,4.8115177E1,1.8613094E1,1.6072273E0,3.197734E1,1.972409E1,0E0,1.1489334E0,5.778658E1,0E0,0E0,3.2291842E0,0E0,0E0,0E0,0E0,0E0,0E0,0E0,0E0,0E0],"parents":[2147483647,0,0,1,1,2,2,3,3,4,4,5,5,6,6,7,7,9,9,10,10,13,13],"right_children":[2,4,6,8,10,12,14,16,-1,18,20,-1,-1,22,-1,-1,-1,-1,-1,-1,-1,-1,-1],"split_conditions":[1.4610068E-2,3E0,7E0,7.0497976E-3,5.9254173E-2,3E0,2.8165879E-2,4.6189376E-3,-6.5601714E-2,6.1728396E-3,1.010101E-2,-7.788042E-2,-4.8802435E-2,3.7037037E-2,-5.261929E-2,-8.381949E-3,3.854002E-2,2.6995052E-2,4.492188E-2,-5.0496865E-2,4.1099053E-2,7.301997E-3,4.8451614E-2],"split_indices":[8,1,1,8,10,4,8,18,0,18,18,0,0,18,0,0,0,0,0,0,0,0,0],"split_type":[0,0,0,0,0,0,0,0,0,0,0,0,0,0,0,0,0,0,0,0,0,0,0],"sum_hessian":[3.9028754E2,3.0865158E2,8.163593E1,1.3604378E2,1.726078E2,3.9227203E1,4.240873E1,1.062711E2,2.9772676E1,9.947801E1,7.31298E1,1.5704244E1,2.352296E1,2.0553276E1,2.1855453E1,7.565142E1,3.0619686E1,1.8343754E1,8.1134254E1,2.5722733E1,4.7407063E1,8.767651E0,1.17856245E1],"tree_param":{"num_deleted":"0","num_feature":"19","num_nodes":"23","size_leaf_vector":"1"}},{"base_weights":[1.2119866E-2,2.3435634E-1,-6.473701E-1,-1.096791E-1,5.623559E-1,-1.1152554E0,-2.695455E-3,1.0507166E-1,-5.948324E-2,8.367139E-1,8.670286E-2,-1.2533369E0,-1.2054603E-2,-4.8118856E-2,6.3690734E-1,-4.7347765E-2,1.2546617E-2,5.054917E-2,3.3813797E-2,-2.4076462E-2,4.1962855E-2,-5.0688215E-2,-8.4327385E-2,4.4633802E-2,-0E0],"categories":[],"categories_nodes":[],"categories_segments":[],"categories_sizes":[],"default_left":[0,0,0,0,0,0,0,0,0,0,0,0,0,0,0,0,0,0,0,0,0,0,0,0,0],"id":65,"left_children":[1,3,5,7,9,11,13,15,-1,17,19,21,-1,-1,23,-1,-1,-1,-1,-1,-1,-1,-1,-1,-1],"loss_changes":[5.6623528E1,3.274701E1,2.9245972E1,3.3135284E1,1.9199692E1,6.345459E0,2.644299E1,1.84552E1,0E0,1.7717896E0,2.4186028E1,3.03228E0,0E0,0E0,4.2764244E0,0E0,0E0,0E0,0E0,0E0,0E0,0E0,0E0,0E0,0E0],"parents":[2147483647,0,0,1,1,2,2,3,3,4,4,5,5,6,6,7,7,9,9,10,10,11,11,14,14],"right_children":[2,4,6,8,10,12,14,16,-1,18,20,22,-1,-1,24,-1,-1,-1,-1,-1,-1,-1,-1,-1,-1],"split_conditions":[3.8089126E-2,3E0,8E0,2.1809958E-2,5.9254173E-2,3.91E2,1.13E2,2E0,-5.948324E-2,1.776849E-2,5E0,2.83E2,-1.2054603E-2,-4.8118856E-2,7.684927E-2,-4.7347765E-2,1.2546617E-2,5.054917E-2,3.3813797E-2,-2.4076462E-2,4.1962855E-2,-5.0688215E-2,-8.4327385E-2,4.4633802E-2,-0E0],"split_indices":[9,1,1,9,10,0,0,1,0,9,1,0,0,0,9,0,0,0,0,0,0,0,0,0,0],"split_type":[0,0,0,0,0,0,0,0,0,0,0,0,0,0,0,0,0,0,0,0,0,0,0,0,0],"sum_hessian":[3.8458994E2,2.882508E2,9.633915E1,1.4086238E2,1.4738841E2,5.5311024E1,4.102813E1,1.18174065E2,2.2688316E1,9.285821E1,5.45302E1,4.7292603E1,8.018423E0,1.6269108E1,2.475902E1,1.3637217E1,1.0453685E2,4.167054E1,5.1187664E1,3.1199564E1,2.3330637E1,3.2751453E1,1.454115E1,1.747928E1,7.279739E0],"tree_param":{"num_deleted":"0","num_feature":"19","num_nodes":"25","size_leaf_vector":"1"}},{"base_weights":[-2.9284975E-2,2.46316E-1,-7.1722764E-1,-5.8267258E-2,7.936764E-1,-7.679555E-2,-4.657043E-1,2.9361057E-1,-6.853062E-1,1.0319344E-1,8.845452E-1,5.5941945E-1,-9.266359E-1,-5.3318955E-2,2.3921583E-2,2.0824512E-2,-4.822464E-2,2.1463236E-2,-8.718209E-3,4.918021E-2,3.7745543E-2,4.546248E-2,-2.4685597E-2,-5.8158297E-2,-2.8016388E-2],"categories":[],"categories_nodes":[],"categories_segments":[],"categories_sizes":[],"default_left":[0,0,0,0,0,0,0,0,0,0,0,0,0,0,0,0,0,0,0,0,0,0,0,0,0],"id":66,"left_children":[1,3,5,7,9,-1,11,13,15,17,19,21,23,-1,-1,-1,-1,-1,-1,-1,-1,-1,-1,-1,-1],"loss_changes":[6.9412895E1,4.3664116E1,2.0652138E1,3.7445557E1,5.6804924E0,0E0,3.9136307E1,2.7750607E1,1.9225035E1,1.19917E0,1.4204407E-1,1.0025885E1,4.094536E0,0E0,0E0,0E0,0E0,0E0,0E0,0E0,0E0,0E0,0E0,0E0,0E0],"parents":[2147483647,0,0,1,1,2,2,3,3,4,4,6,6,7,7,8,8,9,9,10,10,11,11,12,12],"right_children":[2,4,6,8,10,-1,12,14,16,18,20,22,24,-1,-1,-1,-1,-1,-1,-1,-1,-1,-1,-1,-1],"split_conditions":[1.1224115E-2,7.614213E-3,1.3422819E-2,6.2938984E-3,5.874931E0,-7.679555E-2,1.6329244E-2,2.739726E-3,4.7268744E0,5.124559E0,6.0354815E0,4.5034328E0,9E0,-5.3318955E-2,2.3921583E-2,2.0824512E-2,-4.822464E-2,2.1463236E-2,-8.718209E-3,4.918021E-2,3.7745543E-2,4.546248E-2,-2.4685597E-2,-5.8158297E-2,-2.8016388E-2],"split_indices":[8,18,18,8,13,0,8,18,16,16,13,17,1,0,0,0,0,0,0,0,0,0,0,0,0],"split_type":[0,0,0,0,0,0,0,0,0,0,0,0,0,0,0,0,0,0,0,0,0,0,0,0,0],"sum_hessian":[3.6392612E2,2.601874E2,1.037387E2,1.6762303E2,9.2564384E1,2.3087427E1,8.0651276E1,1.0760832E2,6.00147E1,1.1141308E1,8.142308E1,2.488214E1,5.5769135E1,1.2238863E1,9.536946E1,1.19610405E1,4.805366E1,5.0372806E0,6.1040273E0,4.198312E1,3.943996E1,1.8851582E1,6.030558E0,3.2399796E1,2.3369339E1],"tree_param":{"num_deleted":"0","num_feature":"19","num_nodes":"25","size_leaf_vector":"1"}},{"base_weights":[3.235362E-2,-8.0907094E-1,1.733312E-1,-4.9700588E-2,-2.4453728E-1,4.9671065E-2,9.0979084E-2,3.416205E-2,-4.5421254E-2,-8.0538255E-1,1.7086281E-1,-6.033475E-3,-8.134706E-2,4.465481E-2,2.5188732E-3],"categories":[],"categories_nodes":[],"categories_segments":[],"categories_sizes":[],"default_left":[0,0,0,0,0,0,0,0,0,0,0,0,0,0,0],"id":67,"left_children":[1,3,5,-1,7,-1,9,-1,-1,11,13,-1,-1,-1,-1],"loss_changes":[4.478115E1,5.2872314E0,2.1663254E1,0E0,9.773432E0,0E0,2.1224813E1,0E0,0E0,1.3266302E1,2.3541706E1,0E0,0E0,0E0,0E0],"parents":[2147483647,0,0,1,1,2,2,4,4,6,6,9,9,10,10],"right_children":[2,4,6,-1,8,-1,10,-1,-1,12,14,-1,-1,-1,-1],"split_conditions":[2.63E2,2.921E3,3.333598E-3,-4.9700588E-2,3.225E3,4.9671065E-2,3.4305318E-3,3.416205E-2,-4.5421254E-2,4.0706047E-3,6.563717E-2,-6.033475E-3,-8.134706E-2,4.465481E-2,2.5188732E-3],"split_indices":[0,12,8,0,12,0,18,0,0,8,11,0,0,0,0],"split_type":[0,0,0,0,0,0,0,0,0,0,0,0,0,0,0],"sum_hessian":[3.7586508E2,5.3155888E1,3.227092E2,3.933264E1,1.3823248E1,2.8328373E1,2.9438083E2,5.690724E0,8.132524E0,2.3242865E1,2.7113794E2,1.3369171E1,9.8736925E0,3.772972E1,2.3340823E2],"tree_param":{"num_deleted":"0","num_feature":"19","num_nodes":"15","size_leaf_vector":"1"}},{"base_weights":[8.446071E-2,-8.0318254E-1,2.2322482E-1,-4.959605E-2,-2.3527291E-1,2.303833E-2,6.053619E-1,3.825312E-2,-4.5214232E-2,1.5923089E-1,-7.301435E-2,9.57675E-1,-7.8399554E-2,-6.3047536E-2,1.1558297E-2,3.2478247E-2,5.1599115E-2,-5.954338E-2,3.5695545E-2],"categories":[],"categories_nodes":[],"categories_segments":[],"categories_sizes":[],"default_left":[0,0,0,0,0,0,0,0,0,0,0,0,0,0,0,0,0,0,0],"id":68,"left_children":[1,3,5,-1,7,9,11,-1,-1,13,-1,15,17,-1,-1,-1,-1,-1,-1],"loss_changes":[4.7214497E1,5.197159E0,2.5284399E1,0E0,1.0320282E1,4.4297245E1,2.7566975E1,0E0,0E0,2.0756884E1,0E0,8.8427734E-1,3.5723305E1,0E0,0E0,0E0,0E0,0E0,0E0],"parents":[2147483647,0,0,1,1,2,2,4,4,5,5,6,6,9,9,11,11,12,12],"right_children":[2,4,6,-1,8,10,12,-1,-1,14,-1,16,18,-1,-1,-1,-1,-1,-1],"split_conditions":[2.63E2,2.921E3,1.010101E-2,-4.959605E-2,3.691814E1,1.356153E-1,1.8336177E-1,3.825312E-2,-4.5214232E-2,3.55E2,-7.301435E-2,2.2223184E0,7E0,-6.3047536E-2,1.1558297E-2,3.2478247E-2,5.1599115E-2,-5.954338E-2,3.5695545E-2],"split_indices":[0,12,18,0,17,11,11,0,0,0,0,17,1,0,0,0,0,0,0],"split_type":[0,0,0,0,0,0,0,0,0,0,0,0,0,0,0,0,0,0,0],"sum_hessian":[3.8133377E2,5.080928E1,3.3052448E2,